{"learner":{"attributes":{"scikit_learn":"{\"_estimator_type\": \"classifier\"}"},"feature_names":["mtfa_score","ml_regime","time_in_regime","sl_distance_pips","Direction"],"feature_types":["float","float","float","float","float"],"gradient_booster":{"model":{"cats":{"enc":[],"feature_segments":[],"sorted_idx":[]},"gbtree_model_param":{"num_parallel_tree":"1","num_trees":"100"},"iteration_indptr":[0,1,2,3,4,5,6,7,8,9,10,11,12,13,14,15,16,17,18,19,20,21,22,23,24,25,26,27,28,29,30,31,32,33,34,35,36,37,38,39,40,41,42,43,44,45,46,47,48,49,50,51,52,53,54,55,56,57,58,59,60,61,62,63,64,65,66,67,68,69,70,71,72,73,74,75,76,77,78,79,80,81,82,83,84,85,86,87,88,89,90,91,92,93,94,95,96,97,98,99,100],"tree_info":[0,0,0,0,0,0,0,0,0,0,0,0,0,0,0,0,0,0,0,0,0,0,0,0,0,0,0,0,0,0,0,0,0,0,0,0,0,0,0,0,0,0,0,0,0,0,0,0,0,0,0,0,0,0,0,0,0,0,0,0,0,0,0,0,0,0,0,0,0,0,0,0,0,0,0,0,0,0,0,0,0,0,0,0,0,0,0,0,0,0,0,0,0,0,0,0,0,0,0,0],"trees":[{"base_weights":[8.277384E-8,-3.6932147E-1,1.8574093E-1,5.571821E-1,-5.9093E-1,4.541162E-1,-2.1274798E-1,-1.3245093E-2,6.350115E-2,-4.2456765E-2,2.1981861E-2,2.0025158E-3,3.150809E-2,-1.7976703E-2,6.4770035E-2],"categories":[],"categories_nodes":[],"categories_segments":[],"categories_sizes":[],"default_left":[0,0,0,0,0,0,0,0,0,0,0,0,0,0,0],"id":0,"left_children":[1,3,5,7,9,11,13,-1,-1,-1,-1,-1,-1,-1,-1],"loss_changes":[5.9221225E0,6.2607546E0,6.2397017E0,3.9057498E0,6.705927E0,2.5000992E0,5.7340426E0,0E0,0E0,0E0,0E0,0E0,0E0,0E0,0E0],"parents":[2147483647,0,0,1,1,2,2,3,3,4,4,5,5,6,6],"right_children":[2,4,6,8,10,12,14,-1,-1,-1,-1,-1,-1,-1,-1],"split_conditions":[1.81E1,-3.2E1,2E0,1.47E1,8.6E1,-1.6E1,6.5E1,-1.3245093E-2,6.350115E-2,-4.2456765E-2,2.1981861E-2,2.0025158E-3,3.150809E-2,-1.7976703E-2,6.4770035E-2],"split_indices":[3,0,1,3,2,0,0,0,0,0,0,0,0,0,0],"split_type":[0,0,0,0,0,0,0,0,0,0,0,0,0,0,0],"sum_hessian":[8.433071E1,2.7888897E1,5.6441814E1,5.0908303E0,2.2798065E1,3.364375E1,2.2798065E1,2.6560855E0,2.4347448E0,1.8371258E1,4.426809E0,1.0403001E1,2.3240747E1,2.1470024E1,1.3280427E0],"tree_param":{"num_deleted":"0","num_feature":"5","num_nodes":"15","size_leaf_vector":"1"}},{"base_weights":[1.1299851E-3,-3.5251E-1,1.7729256E-1,5.339022E-1,-5.6815094E-1,4.29155E-1,-2.0110856E-1,-1.2807052E-2,6.033653E-2,-4.102875E-2,2.0956121E-2,1.9099532E-3,2.9690746E-2,-1.7221522E-2,6.215058E-2],"categories":[],"categories_nodes":[],"categories_segments":[],"categories_sizes":[],"default_left":[0,0,0,0,0,0,0,0,0,0,0,0,0,0,0],"id":1,"left_children":[1,3,5,7,9,11,13,-1,-1,-1,-1,-1,-1,-1,-1],"loss_changes":[5.3752885E0,5.787489E0,5.5748587E0,3.5673242E0,6.21566E0,2.2236667E0,5.332264E0,0E0,0E0,0E0,0E0,0E0,0E0,0E0,0E0],"parents":[2147483647,0,0,1,1,2,2,3,3,4,4,5,5,6,6],"right_children":[2,4,6,8,10,12,14,-1,-1,-1,-1,-1,-1,-1,-1],"split_conditions":[1.81E1,-3.2E1,2E0,1.47E1,8.6E1,-1.6E1,6.5E1,-1.2807052E-2,6.033653E-2,-4.102875E-2,2.0956121E-2,1.9099532E-3,2.9690746E-2,-1.7221522E-2,6.215058E-2],"split_indices":[3,0,1,3,2,0,0,0,0,0,0,0,0,0,0],"split_type":[0,0,0,0,0,0,0,0,0,0,0,0,0,0,0],"sum_hessian":[8.4280106E1,2.7690792E1,5.6589314E1,5.129523E0,2.256127E1,3.3894875E1,2.2694437E1,2.644098E0,2.4854245E0,1.8101868E1,4.4594007E0,1.0410047E1,2.3484829E1,2.1338217E1,1.3562193E0],"tree_param":{"num_deleted":"0","num_feature":"5","num_nodes":"15","size_leaf_vector":"1"}},{"base_weights":[2.1482576E-3,-3.3660233E-1,1.6929497E-1,5.1195884E-1,-5.46397E-1,2.6484329E-1,-7.227492E-1,-8.704995E-3,6.373876E-2,5.688883E-2,-3.402176E-2,5.3010653E-3,4.680511E-2,-5.681273E-2,1.258594E-2],"categories":[],"categories_nodes":[],"categories_segments":[],"categories_sizes":[],"default_left":[0,0,0,0,0,0,0,0,0,0,0,0,0,0,0],"id":2,"left_children":[1,3,5,7,9,11,13,-1,-1,-1,-1,-1,-1,-1,-1],"loss_changes":[4.8810945E0,5.3506303E0,5.110702E0,3.4470792E0,6.038921E0,5.536562E0,2.6440969E0,0E0,0E0,0E0,0E0,0E0,0E0,0E0,0E0],"parents":[2147483647,0,0,1,1,2,2,3,3,4,4,5,5,6,6],"right_children":[2,4,6,8,10,12,14,-1,-1,-1,-1,-1,-1,-1,-1],"split_conditions":[1.81E1,-3.2E1,2.46E1,-5.5E1,1.07E1,5.2E1,3.7E1,-8.704995E-3,6.373876E-2,5.688883E-2,-3.402176E-2,5.3010653E-3,4.680511E-2,-5.681273E-2,1.258594E-2],"split_indices":[3,0,3,0,3,0,2,0,0,0,0,0,0,0,0],"split_type":[0,0,0,0,0,0,0,0,0,0,0,0,0,0,0],"sum_hessian":[8.419994E1,2.7484407E1,5.6715534E1,5.1626472E0,2.232176E1,5.1863457E1,4.852075E0,3.1244023E0,2.0382452E0,1.0935084E0,2.1228252E1,4.287665E1,8.986807E0,3.2899804E0,1.5620947E0],"tree_param":{"num_deleted":"0","num_feature":"5","num_nodes":"15","size_leaf_vector":"1"}},{"base_weights":[2.9140902E-3,-3.1968996E-1,1.6047457E-1,4.9275652E-1,-5.2383006E-1,3.9345098E-1,-1.9398269E-1,-1.2702121E-2,5.597954E-2,-3.8643487E-2,2.1138314E-2,1.6302947E-3,2.719192E-2,-1.6562939E-2,5.7914026E-2],"categories":[],"categories_nodes":[],"categories_segments":[],"categories_sizes":[],"default_left":[0,0,0,0,0,0,0,0,0,0,0,0,0,0,0],"id":3,"left_children":[1,3,5,7,9,11,13,-1,-1,-1,-1,-1,-1,-1,-1],"loss_changes":[4.3783417E0,4.9464626E0,4.854428E0,3.1829123E0,5.7667494E0,1.8947864E0,4.7678223E0,0E0,0E0,0E0,0E0,0E0,0E0,0E0,0E0],"parents":[2147483647,0,0,1,1,2,2,3,3,4,4,5,5,6,6],"right_children":[2,4,6,8,10,12,14,-1,-1,-1,-1,-1,-1,-1,-1],"split_conditions":[1.81E1,-3.2E1,2E0,1.47E1,8.6E1,-1.6E1,6.5E1,-1.2702121E-2,5.597954E-2,-3.8643487E-2,2.1138314E-2,1.6302947E-3,2.719192E-2,-1.6562939E-2,5.7914026E-2],"split_indices":[3,0,1,3,2,0,0,0,0,0,0,0,0,0,0],"split_type":[0,0,0,0,0,0,0,0,0,0,0,0,0,0,0],"sum_hessian":[8.412826E1,2.726807E1,5.686019E1,5.1917768E0,2.2076294E1,3.424304E1,2.2617151E1,2.6405704E0,2.5512064E0,1.762331E1,4.452983E0,1.0431096E1,2.3811941E1,2.1218203E1,1.3989491E0],"tree_param":{"num_deleted":"0","num_feature":"5","num_nodes":"15","size_leaf_vector":"1"}},{"base_weights":[3.7729263E-3,-3.053166E-1,1.533387E-1,4.7301516E-1,-5.038092E-1,2.4315098E-1,-6.9928956E-1,-8.858168E-3,5.935902E-2,5.536152E-2,-3.1847414E-2,4.7711055E-3,4.293367E-2,-5.5257525E-2,1.1800544E-2],"categories":[],"categories_nodes":[],"categories_segments":[],"categories_sizes":[],"default_left":[0,0,0,0,0,0,0,0,0,0,0,0,0,0,0],"id":4,"left_children":[1,3,5,7,9,11,13,-1,-1,-1,-1,-1,-1,-1,-1],"loss_changes":[3.9768076E0,4.5727816E0,4.608016E0,3.097008E0,5.604097E0,4.753193E0,2.4552915E0,0E0,0E0,0E0,0E0,0E0,0E0,0E0,0E0],"parents":[2147483647,0,0,1,1,2,2,3,3,4,4,5,5,6,6],"right_children":[2,4,6,8,10,12,14,-1,-1,-1,-1,-1,-1,-1,-1],"split_conditions":[1.81E1,-3.2E1,2.46E1,-5.5E1,1.07E1,5.2E1,3.7E1,-8.858168E-3,5.935902E-2,5.536152E-2,-3.1847414E-2,4.7711055E-3,4.293367E-2,-5.5257525E-2,1.1800544E-2],"split_indices":[3,0,3,0,3,0,2,0,0,0,0,0,0,0,0],"split_type":[0,0,0,0,0,0,0,0,0,0,0,0,0,0,0],"sum_hessian":[8.401099E1,2.7056086E1,5.69549E1,5.216813E0,2.1839272E1,5.2173935E1,4.7809615E0,3.1243362E0,2.0924768E0,1.1085845E0,2.0730688E1,4.300703E1,9.166905E0,3.2075078E0,1.5734538E0],"tree_param":{"num_deleted":"0","num_feature":"5","num_nodes":"15","size_leaf_vector":"1"}},{"base_weights":[4.3915207E-3,-2.8987494E-1,1.453835E-1,4.557418E-1,-4.8287964E-1,2.3107666E-1,-6.795592E-1,-1.2573934E-2,5.2137982E-2,-3.6432233E-2,2.122412E-2,4.5308745E-3,4.0550873E-2,-5.405565E-2,1.1413284E-2],"categories":[],"categories_nodes":[],"categories_segments":[],"categories_sizes":[],"default_left":[0,0,0,0,0,0,0,0,0,0,0,0,0,0,0],"id":5,"left_children":[1,3,5,7,9,11,13,-1,-1,-1,-1,-1,-1,-1,-1],"loss_changes":[3.5648127E0,4.2260604E0,4.261999E0,2.8521566E0,5.3487678E0,4.272314E0,2.3312738E0,0E0,0E0,0E0,0E0,0E0,0E0,0E0,0E0],"parents":[2147483647,0,0,1,1,2,2,3,3,4,4,5,5,6,6],"right_children":[2,4,6,8,10,12,14,-1,-1,-1,-1,-1,-1,-1,-1],"split_conditions":[1.81E1,-3.2E1,2.46E1,1.47E1,8.6E1,5.2E1,3.7E1,-1.2573934E-2,5.2137982E-2,-3.6432233E-2,2.122412E-2,4.5308745E-3,4.0550873E-2,-5.405565E-2,1.1413284E-2],"split_indices":[3,0,3,3,2,0,2,0,0,0,0,0,0,0,0],"split_type":[0,0,0,0,0,0,0,0,0,0,0,0,0,0,0],"sum_hessian":[8.390568E1,2.6837261E1,5.7068417E1,5.238513E0,2.159875E1,5.2350277E1,4.718139E0,2.6352487E0,2.6032646E0,1.7150412E1,4.448338E0,4.3074154E1,9.276123E0,3.1388597E0,1.5792794E0],"tree_param":{"num_deleted":"0","num_feature":"5","num_nodes":"15","size_leaf_vector":"1"}},{"base_weights":[4.3760417E-3,-2.7684674E-1,1.3785791E-1,4.3790492E-1,-4.6439594E-1,3.5074988E-1,-1.9035305E-1,-8.971174E-3,5.549801E-2,5.3869445E-2,-2.9828772E-2,2.0834329E-2,-1.6241586E-2,-1.5974572E-2,5.2721974E-2],"categories":[],"categories_nodes":[],"categories_segments":[],"categories_sizes":[],"default_left":[0,0,0,0,0,0,0,0,0,0,0,0,0,0,0],"id":6,"left_children":[1,3,5,7,9,11,13,-1,-1,-1,-1,-1,-1,-1,-1],"loss_changes":[3.220961E0,3.9063108E0,4.13095E0,2.7947962E0,5.2009716E0,1.7226124E0,4.119771E0,0E0,0E0,0E0,0E0,0E0,0E0,0E0,0E0],"parents":[2147483647,0,0,1,1,2,2,3,3,4,4,5,5,6,6],"right_children":[2,4,6,8,10,12,14,-1,-1,-1,-1,-1,-1,-1,-1],"split_conditions":[1.81E1,-3.2E1,2E0,-5.5E1,1.07E1,1.02E2,6.5E1,-8.971174E-3,5.549801E-2,5.3869445E-2,-2.9828772E-2,2.0834329E-2,-1.6241586E-2,-1.5974572E-2,5.2721974E-2],"split_indices":[3,0,1,0,3,2,0,0,0,0,0,0,0,0,0],"split_type":[0,0,0,0,0,0,0,0,0,0,0,0,0,0,0],"sum_hessian":[8.378831E1,2.6623417E1,5.716489E1,5.2563896E0,2.1367027E1,3.4632236E1,2.2532654E1,3.121814E0,2.1345756E0,1.1225288E0,2.02445E1,3.1901838E1,2.7303977E0,2.1088238E1,1.4444176E0],"tree_param":{"num_deleted":"0","num_feature":"5","num_nodes":"15","size_leaf_vector":"1"}},{"base_weights":[5.3867497E-3,-2.627054E-1,1.314523E-1,-3.9888993E-1,6.580871E-1,2.1207932E-1,-6.57865E-1,1.7218325E-2,-3.0423721E-2,6.0989377E-3,4.157163E-2,4.0180334E-3,3.7574556E-2,-5.270163E-2,1.0869284E-2],"categories":[],"categories_nodes":[],"categories_segments":[],"categories_sizes":[],"default_left":[0,0,0,0,0,0,0,0,0,0,0,0,0,0,0],"id":7,"left_children":[1,3,5,7,9,11,13,-1,-1,-1,-1,-1,-1,-1,-1],"loss_changes":[2.8952096E0,3.6990466E0,3.8457587E0,4.025525E0,2.6179433E-1,3.7476404E0,2.1852136E0,0E0,0E0,0E0,0E0,0E0,0E0,0E0,0E0],"parents":[2147483647,0,0,1,1,2,2,3,3,4,4,5,5,6,6],"right_children":[2,4,6,8,10,12,14,-1,-1,-1,-1,-1,-1,-1,-1],"split_conditions":[1.81E1,1.66E2,2.46E1,-3.2E1,-1.5E1,5.2E1,3.7E1,1.7218325E-2,-3.0423721E-2,6.0989377E-3,4.157163E-2,4.0180334E-3,3.7574556E-2,-5.270163E-2,1.0869284E-2],"split_indices":[3,2,3,0,0,0,2,0,0,0,0,0,0,0,0],"split_type":[0,0,0,0,0,0,0,0,0,0,0,0,0,0,0],"sum_hessian":[8.364245E1,2.6405146E1,5.72373E1,2.3496786E1,2.9083607E0,5.2596043E1,4.6412563E0,5.0268407E0,1.8469946E1,1.1268885E0,1.7814722E0,4.3196815E1,9.399228E0,3.0544481E0,1.5868082E0],"tree_param":{"num_deleted":"0","num_feature":"5","num_nodes":"15","size_leaf_vector":"1"}},{"base_weights":[5.4358514E-3,-2.5024885E-1,1.2465966E-1,3.9276987E-2,-7.093632E-1,3.2212073E-1,-1.8321322E-1,-7.821209E-3,3.910423E-2,1.6805632E-2,-5.4379065E-2,1.9232254E-2,-1.605344E-2,1.5261459E-2,-2.6433429E-2],"categories":[],"categories_nodes":[],"categories_segments":[],"categories_sizes":[],"default_left":[0,0,0,0,0,0,0,0,0,0,0,0,0,0,0],"id":8,"left_children":[1,3,5,7,9,11,13,-1,-1,-1,-1,-1,-1,-1,-1],"loss_changes":[2.6076953E0,3.6448565E0,3.6038427E0,2.6858912E0,4.5474153E0,1.5667193E0,4.113516E0,0E0,0E0,0E0,0E0,0E0,0E0,0E0,0E0],"parents":[2147483647,0,0,1,1,2,2,3,3,4,4,5,5,6,6],"right_children":[2,4,6,8,10,12,14,-1,-1,-1,-1,-1,-1,-1,-1],"split_conditions":[1.81E1,1.5E1,2E0,4E0,1.37E1,1.02E2,9E0,-7.821209E-3,3.910423E-2,1.6805632E-2,-5.4379065E-2,1.9232254E-2,-1.605344E-2,1.5261459E-2,-2.6433429E-2],"split_indices":[3,0,1,0,3,2,2,0,0,0,0,0,0,0,0],"split_type":[0,0,0,0,0,0,0,0,0,0,0,0,0,0,0],"sum_hessian":[8.352056E1,2.62107E1,5.730986E1,1.6634888E1,9.57581E0,3.488763E1,2.242223E1,1.3790926E1,2.8439622E0,2.5734818E0,7.002329E0,3.2163036E1,2.724592E0,9.337002E0,1.3085228E1],"tree_param":{"num_deleted":"0","num_feature":"5","num_nodes":"15","size_leaf_vector":"1"}},{"base_weights":[4.8850956E-3,4.9749542E-2,-6.393784E-1,-9.841986E-2,4.1250697E-1,-5.1574327E-2,1.0466251E-2,-7.7618435E-3,3.1118324E-2,9.138278E-3,3.5163764E-2],"categories":[],"categories_nodes":[],"categories_segments":[],"categories_sizes":[],"default_left":[0,0,0,0,0,0,0,0,0,0,0],"id":9,"left_children":[1,3,5,7,9,-1,-1,-1,-1,-1,-1],"loss_changes":[2.4730418E0,4.334532E0,2.069757E0,2.4525383E0,1.4319625E0,0E0,0E0,0E0,0E0,0E0,0E0],"parents":[2147483647,0,0,1,1,2,2,3,3,4,4],"right_children":[2,4,6,8,10,-1,-1,-1,-1,-1,-1],"split_conditions":[2.46E1,2.24E1,3.7E1,1.66E2,3.9E1,-5.1574327E-2,1.0466251E-2,-7.7618435E-3,3.1118324E-2,9.138278E-3,3.5163764E-2],"split_indices":[3,3,2,2,2,0,0,0,0,0,0],"split_type":[0,0,0,0,0,0,0,0,0,0,0],"sum_hessian":[8.345851E1,7.8887794E1,4.5707126E0,5.652761E1,2.2360188E1,2.979015E0,1.5916976E0,5.3124615E1,3.4029953E0,1.3400648E1,8.959539E0],"tree_param":{"num_deleted":"0","num_feature":"5","num_nodes":"11","size_leaf_vector":"1"}},{"base_weights":[4.90401E-3,4.806643E-2,-6.2241E-1,-9.3292214E-2,3.9160275E-1,-5.055811E-2,1.0125175E-2,4.0595327E-2,-6.8516205E-3,8.689026E-3,3.328521E-2],"categories":[],"categories_nodes":[],"categories_segments":[],"categories_sizes":[],"default_left":[0,0,0,0,0,0,0,0,0,0,0],"id":10,"left_children":[1,3,5,7,9,-1,-1,-1,-1,-1,-1],"loss_changes":[2.3153484E0,3.9166894E0,1.9702866E0,2.3845527E0,1.2865293E0,0E0,0E0,0E0,0E0,0E0,0E0],"parents":[2147483647,0,0,1,1,2,2,3,3,4,4],"right_children":[2,4,6,8,10,-1,-1,-1,-1,-1,-1],"split_conditions":[2.46E1,2.24E1,3.7E1,1.09E1,3.9E1,-5.055811E-2,1.0125175E-2,4.0595327E-2,-6.8516205E-3,8.689026E-3,3.328521E-2],"split_indices":[3,3,2,3,2,0,0,0,0,0,0],"split_type":[0,0,0,0,0,0,0,0,0,0,0],"sum_hessian":[8.34068E1,7.890136E1,4.5054407E0,5.6415775E1,2.248558E1,2.9088326E0,1.5966079E0,1.7909164E0,5.462486E1,1.34395075E1,9.046073E0],"tree_param":{"num_deleted":"0","num_feature":"5","num_nodes":"11","size_leaf_vector":"1"}},{"base_weights":[5.031089E-3,-2.3363598E-1,1.1520755E-1,4.6562064E-2,-6.856303E-1,1.8582663E-1,-6.0615355E-1,-7.110312E-3,3.7483048E-2,1.5512483E-2,-5.2880127E-2,2.9549764E-3,3.5258766E-2,-4.9588E-2,9.795739E-3],"categories":[],"categories_nodes":[],"categories_segments":[],"categories_sizes":[],"default_left":[0,0,0,0,0,0,0,0,0,0,0,0,0,0,0],"id":11,"left_children":[1,3,5,7,9,11,13,-1,-1,-1,-1,-1,-1,-1,-1],"loss_changes":[2.244906E0,3.4476671E0,3.0865366E0,2.4406245E0,4.175032E0,3.508295E0,1.8768268E0,0E0,0E0,0E0,0E0,0E0,0E0,0E0,0E0],"parents":[2147483647,0,0,1,1,2,2,3,3,4,4,5,5,6,6],"right_children":[2,4,6,8,10,12,14,-1,-1,-1,-1,-1,-1,-1,-1],"split_conditions":[1.81E1,1.5E1,2.46E1,4E0,1.37E1,5.2E1,3.7E1,-7.110312E-3,3.7483048E-2,1.5512483E-2,-5.2880127E-2,2.9549764E-3,3.5258766E-2,-4.9588E-2,9.795739E-3],"split_indices":[3,0,3,0,3,0,2,0,0,0,0,0,0,0,0],"split_type":[0,0,0,0,0,0,0,0,0,0,0,0,0,0,0],"sum_hessian":[8.334864E1,2.597038E1,5.737826E1,1.6585665E1,9.384716E0,5.293817E1,4.440093E0,1.3704121E1,2.8815448E0,2.5971932E0,6.787523E0,4.3449726E1,9.488443E0,2.8387961E0,1.6012968E0],"tree_param":{"num_deleted":"0","num_feature":"5","num_nodes":"15","size_leaf_vector":"1"}},{"base_weights":[4.5812777E-3,-2.2365606E-1,1.09283E-1,4.2892277E-1,-4.028421E-1,2.853784E-1,-1.6981949E-1,-8.444956E-3,5.3571224E-2,5.0379485E-2,-2.6597066E-2,1.9341795E-2,-6.1926693E-3,1.5005271E-2,-2.5323534E-2],"categories":[],"categories_nodes":[],"categories_segments":[],"categories_sizes":[],"default_left":[0,0,0,0,0,0,0,0,0,0,0,0,0,0,0],"id":12,"left_children":[1,3,5,7,9,11,13,-1,-1,-1,-1,-1,-1,-1,-1],"loss_changes":[2.0376253E0,3.3090816E0,2.9198978E0,2.586359E0,4.4615417E0,1.5507202E0,3.8267329E0,0E0,0E0,0E0,0E0,0E0,0E0,0E0,0E0],"parents":[2147483647,0,0,1,1,2,2,3,3,4,4,5,5,6,6],"right_children":[2,4,6,8,10,12,14,-1,-1,-1,-1,-1,-1,-1,-1],"split_conditions":[1.81E1,-3.2E1,2E0,-5.5E1,1.07E1,7.3E1,9E0,-8.444956E-3,5.3571224E-2,5.0379485E-2,-2.6597066E-2,1.9341795E-2,-6.1926693E-3,1.5005271E-2,-2.5323534E-2],"split_indices":[3,0,1,0,3,2,2,0,0,0,0,0,0,0,0],"split_type":[0,0,0,0,0,0,0,0,0,0,0,0,0,0,0],"sum_hessian":[8.324475E1,2.5821283E1,5.7423466E1,5.262397E0,2.0558887E1,3.519515E1,2.222832E1,3.107819E0,2.1545775E0,1.1533675E0,1.940552E1,2.8246859E1,6.9482884E0,9.323033E0,1.2905285E1],"tree_param":{"num_deleted":"0","num_feature":"5","num_nodes":"15","size_leaf_vector":"1"}},{"base_weights":[5.1251478E-3,4.5194484E-2,-5.907297E-1,-8.5908964E-2,3.5960045E-1,-4.862454E-2,9.369107E-3,-6.629796E-3,3.5793703E-2,3.3472728E-2,8.999873E-3],"categories":[],"categories_nodes":[],"categories_segments":[],"categories_sizes":[],"default_left":[0,0,0,0,0,0,0,0,0,0,0],"id":13,"left_children":[1,3,5,7,9,-1,-1,-1,-1,-1,-1],"loss_changes":[2.0346398E0,3.3173518E0,1.777463E0,2.2313843E0,1.195955E0,0E0,0E0,0E0,0E0,0E0,0E0],"parents":[2147483647,0,0,1,1,2,2,3,3,4,4],"right_children":[2,4,6,8,10,-1,-1,-1,-1,-1,-1],"split_conditions":[2.46E1,2.24E1,3.7E1,1.8E2,9E0,-4.862454E-2,9.369107E-3,-6.629796E-3,3.5793703E-2,3.3472728E-2,8.999873E-3],"split_indices":[3,3,2,2,2,0,0,0,0,0,0],"split_type":[0,0,0,0,0,0,0,0,0,0,0],"sum_hessian":[8.310049E1,7.873028E1,4.3702083E0,5.6074608E1,2.265567E1,2.7642093E0,1.6059986E0,5.377781E1,2.2967992E0,7.312539E0,1.5343131E1],"tree_param":{"num_deleted":"0","num_feature":"5","num_nodes":"11","size_leaf_vector":"1"}},{"base_weights":[5.212457E-3,-1.3864307E-1,1.6586961E-1,2.1928443E-1,-5.2596784E-1,1.0261654E0,5.5071056E-2,-8.3432095E-3,2.3932597E-2,-3.0400613E-2,2.5288869E-2,6.376374E-2,6.8744207E-3,-6.9750967E-3,2.5771929E-2],"categories":[],"categories_nodes":[],"categories_segments":[],"categories_sizes":[],"default_left":[0,0,0,0,0,0,0,0,0,0,0,0,0,0,0],"id":14,"left_children":[1,3,5,7,9,11,13,-1,-1,-1,-1,-1,-1,-1,-1],"loss_changes":[1.9652483E0,6.337577E0,3.7711554E0,2.4868002E0,2.1571193E0,8.2639265E-1,3.3531475E0,0E0,0E0,0E0,0E0,0E0,0E0,0E0,0E0],"parents":[2147483647,0,0,1,1,2,2,3,3,4,4,5,5,6,6],"right_children":[2,4,6,8,10,12,14,-1,-1,-1,-1,-1,-1,-1,-1],"split_conditions":[3.7E1,9E0,4.5E1,1.93E1,6.5E1,1E0,2.19E1,-8.3432095E-3,2.3932597E-2,-3.0400613E-2,2.5288869E-2,6.376374E-2,6.8744207E-3,-6.9750967E-3,2.5771929E-2],"split_indices":[2,2,2,3,0,4,3,0,0,0,0,0,0,0,0],"split_type":[0,0,0,0,0,0,0,0,0,0,0,0,0,0,0],"sum_hessian":[8.303861E1,4.3882442E1,3.915617E1,2.3032196E1,2.0850246E1,3.5249715E0,3.5631195E1,9.397607E0,1.363459E1,1.969481E1,1.155437E0,2.413426E0,1.1115454E0,2.553562E1,1.0095577E1],"tree_param":{"num_deleted":"0","num_feature":"5","num_nodes":"15","size_leaf_vector":"1"}},{"base_weights":[6.0589276E-3,4.509867E-2,-5.8083886E-1,-4.244868E-2,4.3808097E-1,-4.759576E-2,8.062514E-3,-4.5245416E-3,4.1533396E-2,3.4816813E-2,6.599764E-3],"categories":[],"categories_nodes":[],"categories_segments":[],"categories_sizes":[],"default_left":[0,0,0,0,0,0,0,0,0,0,0],"id":15,"left_children":[1,3,5,7,9,-1,-1,-1,-1,-1,-1],"loss_changes":[1.9493486E0,2.7581687E0,1.6149204E0,2.844991E0,1.0618546E0,0E0,0E0,0E0,0E0,0E0,0E0],"parents":[2147483647,0,0,1,1,2,2,3,3,4,4],"right_children":[2,4,6,8,10,-1,-1,-1,-1,-1,-1],"split_conditions":[2.46E1,2.34E1,3.7E1,1.8E2,2.39E1,-4.759576E-2,8.062514E-3,-4.5245416E-3,4.1533396E-2,3.4816813E-2,6.599764E-3],"split_indices":[3,3,2,2,3,0,0,0,0,0,0],"split_type":[0,0,0,0,0,0,0,0,0,0,0],"sum_hessian":[8.293528E1,7.862819E1,4.307096E0,6.503245E1,1.3595739E1,2.6828203E0,1.6242756E0,6.2490353E1,2.5420945E0,6.6825027E0,6.913236E0],"tree_param":{"num_deleted":"0","num_feature":"5","num_nodes":"11","size_leaf_vector":"1"}},{"base_weights":[6.182509E-3,4.3804802E-2,-5.664495E-1,-7.2461136E-2,3.183293E-1,-4.674759E-2,7.802581E-3,3.7773445E-2,-5.6849606E-3,3.3288345E-2,8.114129E-3],"categories":[],"categories_nodes":[],"categories_segments":[],"categories_sizes":[],"default_left":[0,0,0,0,0,0,0,0,0,0,0],"id":16,"left_children":[1,3,5,7,9,-1,-1,-1,-1,-1,-1],"loss_changes":[1.8317219E0,2.564659E0,1.5416776E0,2.0235677E0,1.186446E0,0E0,0E0,0E0,0E0,0E0,0E0],"parents":[2147483647,0,0,1,1,2,2,3,3,4,4],"right_children":[2,4,6,8,10,-1,-1,-1,-1,-1,-1],"split_conditions":[2.46E1,2.24E1,3.7E1,1.09E1,-2.6E1,-4.674759E-2,7.802581E-3,3.7773445E-2,-5.6849606E-3,3.3288345E-2,8.114129E-3],"split_indices":[3,3,2,3,0,0,0,0,0,0,0],"split_type":[0,0,0,0,0,0,0,0,0,0,0],"sum_hessian":[8.287167E1,7.862919E1,4.2424855E0,5.5752907E1,2.2876284E1,2.6147945E0,1.6276911E0,1.8234813E0,5.3929424E1,6.0777445E0,1.6798538E1],"tree_param":{"num_deleted":"0","num_feature":"5","num_nodes":"11","size_leaf_vector":"1"}},{"base_weights":[6.2489845E-3,-1.3028185E-1,1.5760413E-1,2.0848922E-1,-5.024193E-1,9.784514E-1,5.0750606E-2,3.9730347E-3,5.0507274E-2,-2.9149314E-2,2.4518933E-2,6.0465213E-2,6.8212645E-3,-6.455406E-3,2.3530832E-2],"categories":[],"categories_nodes":[],"categories_segments":[],"categories_sizes":[],"default_left":[0,0,0,0,0,0,0,0,0,0,0,0,0,0,0],"id":17,"left_children":[1,3,5,7,9,11,13,-1,-1,-1,-1,-1,-1,-1,-1],"loss_changes":[1.7524925E0,5.728922E0,3.4763885E0,2.4083652E0,2.009776E0,7.244611E-1,2.8265777E0,0E0,0E0,0E0,0E0,0E0,0E0,0E0,0E0],"parents":[2147483647,0,0,1,1,2,2,3,3,4,4,5,5,6,6],"right_children":[2,4,6,8,10,12,14,-1,-1,-1,-1,-1,-1,-1,-1],"split_conditions":[3.7E1,9E0,4.5E1,6E1,6.5E1,1E0,2.19E1,3.9730347E-3,5.0507274E-2,-2.9149314E-2,2.4518933E-2,6.0465213E-2,6.8212645E-3,-6.455406E-3,2.3530832E-2],"split_indices":[2,2,2,0,0,4,3,0,0,0,0,0,0,0,0],"split_type":[0,0,0,0,0,0,0,0,0,0,0,0,0,0,0],"sum_hessian":[8.2812706E1,4.361172E1,3.920099E1,2.305951E1,2.055221E1,3.575685E0,3.5625305E1,2.0809319E1,2.2501905E0,1.9391357E1,1.160853E0,2.4639702E0,1.1117146E0,2.5426018E1,1.0199286E1],"tree_param":{"num_deleted":"0","num_feature":"5","num_nodes":"15","size_leaf_vector":"1"}},{"base_weights":[7.475178E-3,4.3951064E-2,-5.5523074E-1,-3.543126E-2,3.9583355E-1,-4.567325E-2,6.6294367E-3,-4.0818127E-3,3.9653417E-2,3.191218E-2,5.4615103E-3],"categories":[],"categories_nodes":[],"categories_segments":[],"categories_sizes":[],"default_left":[0,0,0,0,0,0,0,0,0,0,0],"id":18,"left_children":[1,3,5,7,9,-1,-1,-1,-1,-1,-1],"loss_changes":[1.7421112E0,2.2352724E0,1.394499E0,2.5836425E0,9.529135E-1,0E0,0E0,0E0,0E0,0E0,0E0],"parents":[2147483647,0,0,1,1,2,2,3,3,4,4],"right_children":[2,4,6,8,10,-1,-1,-1,-1,-1,-1],"split_conditions":[2.46E1,2.34E1,3.7E1,1.8E2,2.39E1,-4.567325E-2,6.6294367E-3,-4.0818127E-3,3.9653417E-2,3.191218E-2,5.4615103E-3],"split_indices":[3,3,2,2,3,0,0,0,0,0,0],"split_type":[0,0,0,0,0,0,0,0,0,0,0],"sum_hessian":[8.268778E1,7.8519844E1,4.1679425E0,6.4800575E1,1.3719265E1,2.5248668E0,1.6430758E0,6.223143E1,2.5691493E0,6.76797E0,6.9512944E0],"tree_param":{"num_deleted":"0","num_feature":"5","num_nodes":"11","size_leaf_vector":"1"}},{"base_weights":[7.4770763E-3,4.2655338E-2,-5.4192257E-1,-1.913782E-1,1.5546864E-1,-4.489454E-2,6.4168535E-3,4.1968133E-3,-3.2299694E-2,1.794761E-3,3.2301206E-2],"categories":[],"categories_nodes":[],"categories_segments":[],"categories_sizes":[],"default_left":[0,0,0,0,0,0,0,0,0,0,0],"id":19,"left_children":[1,3,5,7,9,-1,-1,-1,-1,-1,-1],"loss_changes":[1.6392183E0,2.1290972E0,1.3332255E0,3.347313E0,3.1562593E0,0E0,0E0,0E0,0E0,0E0,0E0],"parents":[2147483647,0,0,1,1,2,2,3,3,4,4],"right_children":[2,4,6,8,10,-1,-1,-1,-1,-1,-1],"split_conditions":[2.46E1,1.81E1,3.7E1,1.5E1,5.2E1,-4.489454E-2,6.4168535E-3,4.1968133E-3,-3.2299694E-2,1.794761E-3,3.2301206E-2],"split_indices":[3,3,2,0,0,0,0,0,0,0,0],"split_type":[0,0,0,0,0,0,0,0,0,0,0],"sum_hessian":[8.2619225E1,7.851428E1,4.1049385E0,2.531057E1,5.3203716E1,2.4592428E0,1.6456954E0,1.6271776E1,9.038793E0,4.363967E1,9.564045E0],"tree_param":{"num_deleted":"0","num_feature":"5","num_nodes":"11","size_leaf_vector":"1"}},{"base_weights":[6.6667274E-3,3.6793936E-2,-1.8727722E-2,-2.8319544E-1,9.208057E-2,2.2300028E-3,-4.2586666E-2,1.2414243E-2,-8.021126E-3],"categories":[],"categories_nodes":[],"categories_segments":[],"categories_sizes":[],"default_left":[0,0,0,0,0,0,0,0,0],"id":20,"left_children":[1,-1,3,5,7,-1,-1,-1,-1],"loss_changes":[1.5605633E0,0E0,2.4201102E0,4.5791225E0,2.340331E0,0E0,0E0,0E0,0E0],"parents":[2147483647,0,0,2,2,3,3,4,4],"right_children":[2,-1,4,6,8,-1,-1,-1,-1],"split_conditions":[1.09E1,3.6793936E-2,1.81E1,1.5E1,2E0,2.2300028E-3,-4.2586666E-2,1.2414243E-2,-8.021126E-3],"split_indices":[3,0,3,0,1,0,0,0,0],"split_type":[0,0,0,0,0,0,0,0,0],"sum_hessian":[8.252886E1,1.8357792E0,8.0693085E1,2.3367002E1,5.7326077E1,1.5406058E1,7.960945E0,3.5426888E1,2.1899193E1],"tree_param":{"num_deleted":"0","num_feature":"5","num_nodes":"9","size_leaf_vector":"1"}},{"base_weights":[6.2918477E-3,4.0204156E-2,-5.2947044E-1,-3.4247104E-2,3.6759293E-1,-4.4061605E-2,5.9953174E-3,-4.303939E-3,3.2859065E-2,2.9926559E-2,4.747452E-3],"categories":[],"categories_nodes":[],"categories_segments":[],"categories_sizes":[],"default_left":[0,0,0,0,0,0,0,0,0,0,0],"id":21,"left_children":[1,3,5,7,9,-1,-1,-1,-1,-1,-1],"loss_changes":[1.5372165E0,1.9478719E0,1.2563405E0,2.40761E0,8.747667E-1,0E0,0E0,0E0,0E0,0E0,0E0],"parents":[2147483647,0,0,1,1,2,2,3,3,4,4],"right_children":[2,4,6,8,10,-1,-1,-1,-1,-1,-1],"split_conditions":[2.46E1,2.34E1,3.7E1,1.66E2,2.39E1,-4.4061605E-2,5.9953174E-3,-4.303939E-3,3.2859065E-2,2.9926559E-2,4.747452E-3],"split_indices":[3,3,2,2,3,0,0,0,0,0,0],"split_type":[0,0,0,0,0,0,0,0,0,0,0],"sum_hessian":[8.243524E1,7.839783E1,4.0374126E0,6.4602104E1,1.3795728E1,2.387229E0,1.6501838E0,6.0911488E1,3.690613E0,6.8219924E0,6.9737353E0],"tree_param":{"num_deleted":"0","num_feature":"5","num_nodes":"11","size_leaf_vector":"1"}},{"base_weights":[6.2510944E-3,3.0366468E-1,-5.2569073E-2,-2.8186682E-1,5.987153E-1,-2.9403922E-1,8.299507E-2,-3.0550668E-2,1.9843014E-2,6.73824E-2,1.3977416E-2,-2.2547135E-2,-2.8456186E-3,3.0979244E-2,-5.2402443E-3],"categories":[],"categories_nodes":[],"categories_segments":[],"categories_sizes":[],"default_left":[0,0,0,0,0,0,0,0,0,0,0,0,0,0,0],"id":22,"left_children":[1,3,5,7,9,11,13,-1,-1,-1,-1,-1,-1,-1,-1],"loss_changes":[1.4743434E0,2.5723062E0,2.330643E0,1.4357778E0,1.911077E0,9.250088E-1,4.690437E0,0E0,0E0,0E0,0E0,0E0,0E0,0E0,0E0],"parents":[2147483647,0,0,1,1,2,2,3,3,4,4,5,5,6,6],"right_children":[2,4,6,8,10,12,14,-1,-1,-1,-1,-1,-1,-1,-1],"split_conditions":[-4.2E1,-7E1,-3E0,2.4E1,5E0,2.7E1,1.5E1,-3.0550668E-2,1.9843014E-2,6.73824E-2,1.3977416E-2,-2.2547135E-2,-2.8456186E-3,3.0979244E-2,-5.2402443E-3],"split_indices":[0,0,0,2,2,2,0,0,0,0,0,0,0,0,0],"split_type":[0,0,0,0,0,0,0,0,0,0,0,0,0,0,0],"sum_hessian":[8.2364975E1,1.2912524E1,6.9452446E1,4.341483E0,8.571041E0,2.4551579E1,4.490087E1,2.990847E0,1.3506358E0,1.5982708E0,6.9727707E0,1.4232464E1,1.0319116E1,1.1044603E1,3.3856266E1],"tree_param":{"num_deleted":"0","num_feature":"5","num_nodes":"15","size_leaf_vector":"1"}},{"base_weights":[6.73138E-3,3.5495613E-2,-1.794513E-2,-2.7433202E-1,8.881889E-2,1.8750544E-3,-4.1394364E-2,1.1739843E-2,-7.4675726E-3],"categories":[],"categories_nodes":[],"categories_segments":[],"categories_sizes":[],"default_left":[0,0,0,0,0,0,0,0,0],"id":23,"left_children":[1,-1,3,5,7,-1,-1,-1,-1],"loss_changes":[1.4587188E0,0E0,2.2547655E0,4.208336E0,2.0614033E0,0E0,0E0,0E0,0E0],"parents":[2147483647,0,0,2,2,3,3,4,4],"right_children":[2,-1,4,6,8,-1,-1,-1,-1],"split_conditions":[1.09E1,3.5495613E-2,1.81E1,1.5E1,2E0,1.8750544E-3,-4.1394364E-2,1.1739843E-2,-7.4675726E-3],"split_indices":[3,0,3,0,1,0,0,0,0],"split_type":[0,0,0,0,0,0,0,0,0],"sum_hessian":[8.23319E1,1.8498518E0,8.0482056E1,2.3199776E1,5.7282276E1,1.543632E1,7.763456E0,3.5523556E1,2.1758722E1],"tree_param":{"num_deleted":"0","num_feature":"5","num_nodes":"9","size_leaf_vector":"1"}},{"base_weights":[6.3506323E-3,3.895007E-2,-5.1565564E-1,-3.2243755E-2,3.5030723E-1,-4.316129E-2,5.581486E-3,-4.0996433E-3,3.1282015E-2,2.8477652E-2,4.5151184E-3],"categories":[],"categories_nodes":[],"categories_segments":[],"categories_sizes":[],"default_left":[0,0,0,0,0,0,0,0,0,0,0],"id":24,"left_children":[1,3,5,7,9,-1,-1,-1,-1,-1,-1],"loss_changes":[1.4364878E0,1.7684801E0,1.1783544E0,2.1929114E0,7.9434586E-1,0E0,0E0,0E0,0E0,0E0,0E0],"parents":[2147483647,0,0,1,1,2,2,3,3,4,4],"right_children":[2,4,6,8,10,-1,-1,-1,-1,-1,-1],"split_conditions":[2.46E1,2.34E1,3.7E1,1.66E2,2.39E1,-4.316129E-2,5.581486E-3,-4.0996433E-3,3.1282015E-2,2.8477652E-2,4.5151184E-3],"split_indices":[3,3,2,2,3,0,0,0,0,0,0],"split_type":[0,0,0,0,0,0,0,0,0,0,0],"sum_hessian":[8.223404E1,7.8271355E1,3.9626846E0,6.443445E1,1.3836911E1,2.3078222E0,1.6548622E0,6.0718304E1,3.716142E0,6.860953E0,6.9759583E0],"tree_param":{"num_deleted":"0","num_feature":"5","num_nodes":"11","size_leaf_vector":"1"}},{"base_weights":[6.2800255E-3,2.1123222E-1,-7.5000815E-2,8.799263E-2,9.6775347E-1,-5.4756415E-1,1.1705362E-1,1.3602688E-2,-1.8503558E-2,6.1124295E-2,1.0289115E-2,-8.077529E-3,-3.461845E-2,9.654327E-3,-2.9152159E-2],"categories":[],"categories_nodes":[],"categories_segments":[],"categories_sizes":[],"default_left":[0,0,0,0,0,0,0,0,0,0,0,0,0,0,0],"id":25,"left_children":[1,3,5,7,9,11,13,-1,-1,-1,-1,-1,-1,-1,-1],"loss_changes":[1.4012034E0,2.1409936E0,5.53537E0,1.9245446E0,3.7823963E-1,8.717303E-1,2.4380987E0,0E0,0E0,0E0,0E0,0E0,0E0,0E0,0E0],"parents":[2147483647,0,0,1,1,2,2,3,3,4,4,5,5,6,6],"right_children":[2,4,6,8,10,12,14,-1,-1,-1,-1,-1,-1,-1,-1],"split_conditions":[9E0,6E1,2.4E1,1.5E1,7.3E1,1.91E1,7.4E1,1.3602688E-2,-1.8503558E-2,6.1124295E-2,1.0289115E-2,-8.077529E-3,-3.461845E-2,9.654327E-3,-2.9152159E-2],"split_indices":[2,0,2,0,0,3,0,0,0,0,0,0,0,0,0],"split_type":[0,0,0,0,0,0,0,0,0,0,0,0,0,0,0],"sum_hessian":[8.216147E1,2.287717E1,5.9284298E1,2.0632402E1,2.244768E0,1.659646E1,4.2687836E1,1.5007932E1,5.6244717E0,1.2293984E0,1.0153697E0,5.104577E0,1.1491884E1,3.9159214E1,3.5286248E0],"tree_param":{"num_deleted":"0","num_feature":"5","num_nodes":"15","size_leaf_vector":"1"}},{"base_weights":[5.9651877E-3,3.394686E-2,-1.7844303E-2,-2.6745555E-1,8.564156E-2,1.4604107E-3,-4.030319E-2,-1.7137238E-4,2.2467123E-2],"categories":[],"categories_nodes":[],"categories_segments":[],"categories_sizes":[],"default_left":[0,0,0,0,0,0,0,0,0],"id":26,"left_children":[1,-1,3,5,7,-1,-1,-1,-1],"loss_changes":[1.3437356E0,0E0,2.1214552E0,3.8668067E0,1.8865149E0,0E0,0E0,0E0,0E0],"parents":[2147483647,0,0,2,2,3,3,4,4],"right_children":[2,-1,4,6,8,-1,-1,-1,-1],"split_conditions":[1.09E1,3.394686E-2,1.81E1,1.5E1,5.2E1,1.4604107E-3,-4.030319E-2,-1.7137238E-4,2.2467123E-2],"split_indices":[3,0,3,0,0,0,0,0,0],"split_type":[0,0,0,0,0,0,0,0,0],"sum_hessian":[8.210619E1,1.8654039E0,8.024078E1,2.3052631E1,5.7188156E1,1.5474884E1,7.5777473E0,4.6733795E1,1.0454358E1],"tree_param":{"num_deleted":"0","num_feature":"5","num_nodes":"9","size_leaf_vector":"1"}},{"base_weights":[5.8351946E-3,3.72631E-2,-5.042477E-1,2.615391E-1,-5.347439E-2,-4.2196907E-2,4.793191E-3,-7.0276395E-3,2.70706E-2,-2.1300714E-2,7.1462304E-3],"categories":[],"categories_nodes":[],"categories_segments":[],"categories_sizes":[],"default_left":[0,0,0,0,0,0,0,0,0,0,0],"id":27,"left_children":[1,3,5,7,9,-1,-1,-1,-1,-1,-1],"loss_changes":[1.3494323E0,1.6240754E0,1.0769699E0,2.6598272E0,4.2430477E0,0E0,0E0,0E0,0E0,0E0,0E0],"parents":[2147483647,0,0,1,1,2,2,3,3,4,4],"right_children":[2,4,6,8,10,-1,-1,-1,-1,-1,-1],"split_conditions":[2.46E1,9E0,3.7E1,1.93E1,3.9E1,-4.2196907E-2,4.793191E-3,-7.0276395E-3,2.70706E-2,-2.1300714E-2,7.1462304E-3],"split_indices":[3,2,2,3,2,0,0,0,0,0,0],"split_type":[0,0,0,0,0,0,0,0,0,0,0],"sum_hessian":[8.200517E1,7.811895E1,3.8862216E0,2.1959427E1,5.6159527E1,2.2221065E0,1.6641152E0,9.216266E0,1.2743161E1,1.8982811E1,3.7176716E1],"tree_param":{"num_deleted":"0","num_feature":"5","num_nodes":"11","size_leaf_vector":"1"}},{"base_weights":[5.1152846E-3,2.8387722E-1,-5.0534543E-2,-2.693832E-1,5.576538E-1,-2.8992045E-1,8.4147274E-2,-2.9363522E-2,1.8593347E-2,6.339882E-2,1.2714989E-2,-1.8475186E-2,4.3222914E-3,2.8929701E-2,-4.6394127E-3],"categories":[],"categories_nodes":[],"categories_segments":[],"categories_sizes":[],"default_left":[0,0,0,0,0,0,0,0,0,0,0,0,0,0,0],"id":28,"left_children":[1,3,5,7,9,11,13,-1,-1,-1,-1,-1,-1,-1,-1],"loss_changes":[1.3007307E0,2.2632825E0,2.28037E0,1.2971998E0,1.758666E0,7.932813E-1,4.0389967E0,0E0,0E0,0E0,0E0,0E0,0E0,0E0,0E0],"parents":[2147483647,0,0,1,1,2,2,3,3,4,4,5,5,6,6],"right_children":[2,4,6,8,10,12,14,-1,-1,-1,-1,-1,-1,-1,-1],"split_conditions":[-4.2E1,-7E1,-3E0,2.4E1,5E0,6.8E1,1.5E1,-2.9363522E-2,1.8593347E-2,6.339882E-2,1.2714989E-2,-1.8475186E-2,4.3222914E-3,2.8929701E-2,-4.6394127E-3],"split_indices":[0,0,0,2,2,2,0,0,0,0,0,0,0,0,0],"split_type":[0,0,0,0,0,0,0,0,0,0,0,0,0,0,0],"sum_hessian":[8.1922745E1,1.2950379E1,6.897237E1,4.292316E0,8.658064E0,2.4418264E1,4.45541E1,2.9259913E0,1.3663244E0,1.6394143E0,7.0186496E0,2.0171255E1,4.2470107E0,1.1143494E1,3.3410606E1],"tree_param":{"num_deleted":"0","num_feature":"5","num_nodes":"15","size_leaf_vector":"1"}},{"base_weights":[5.720576E-3,3.297317E-2,-1.7550072E-2,-6.657951E-1,2.1039622E-2,-4.7747876E-2,5.7061496E-3,1.5633527E-2,-1.8909673E-3],"categories":[],"categories_nodes":[],"categories_segments":[],"categories_sizes":[],"default_left":[0,0,0,0,0,0,0,0,0],"id":29,"left_children":[1,-1,3,5,7,-1,-1,-1,-1],"loss_changes":[1.2723347E0,0E0,2.040253E0,1.1422312E0,1.340708E0,0E0,0E0,0E0,0E0],"parents":[2147483647,0,0,2,2,3,3,4,4],"right_children":[2,-1,4,6,8,-1,-1,-1,-1],"split_conditions":[1.09E1,3.297317E-2,1.32E1,1.11E2,-4.2E1,-4.7747876E-2,5.7061496E-3,1.5633527E-2,-1.8909673E-3],"split_indices":[3,0,3,2,0,0,0,0,0],"split_type":[0,0,0,0,0,0,0,0,0],"sum_hessian":[8.187382E1,1.8745034E0,7.999931E1,3.5815659E0,7.641775E1,2.4491034E0,1.1324626E0,1.2108933E1,6.4308815E1],"tree_param":{"num_deleted":"0","num_feature":"5","num_nodes":"9","size_leaf_vector":"1"}},{"base_weights":[5.467889E-3,3.556499E-2,-4.8924074E-1,-2.668426E-2,3.47449E-1,-4.144161E-2,4.8251534E-3,-3.5854843E-3,2.8824544E-2,-4.437301E-3,2.771892E-2],"categories":[],"categories_nodes":[],"categories_segments":[],"categories_sizes":[],"default_left":[0,0,0,0,0,0,0,0,0,0,0],"id":30,"left_children":[1,3,5,7,9,-1,-1,-1,-1,-1,-1],"loss_changes":[1.250923E0,1.5435523E0,1.0385342E0,1.8557068E0,1.2424656E0,0E0,0E0,0E0,0E0,0E0,0E0],"parents":[2147483647,0,0,1,1,2,2,3,3,4,4],"right_children":[2,4,6,8,10,-1,-1,-1,-1,-1,-1],"split_conditions":[2.46E1,2.35E1,3.7E1,1.66E2,-2.1E1,-4.144161E-2,4.8251534E-3,-3.5854843E-3,2.8824544E-2,-4.437301E-3,2.771892E-2],"split_indices":[3,3,2,2,0,0,0,0,0,0,0],"split_type":[0,0,0,0,0,0,0,0,0,0,0],"sum_hessian":[8.1846306E1,7.802738E1,3.8189235E0,6.580728E1,1.2220101E1,2.154703E0,1.6642206E0,6.2056076E1,3.7512088E0,4.1156597E0,8.104442E0],"tree_param":{"num_deleted":"0","num_feature":"5","num_nodes":"11","size_leaf_vector":"1"}},{"base_weights":[5.3165792E-3,1.9591156E-1,-7.06696E-2,7.776318E-2,9.238937E-1,-5.066743E-1,1.01989746E-1,1.2477716E-2,-1.7807094E-2,5.7839382E-2,1.0143337E-2,-6.349186E-3,-3.2585274E-2,8.697152E-3,-2.836794E-2],"categories":[],"categories_nodes":[],"categories_segments":[],"categories_sizes":[],"default_left":[0,0,0,0,0,0,0,0,0,0,0,0,0,0,0],"id":31,"left_children":[1,3,5,7,9,11,13,-1,-1,-1,-1,-1,-1,-1,-1],"loss_changes":[1.2125559E0,1.9801428E0,4.5618343E0,1.7003165E0,3.0929828E-1,8.6233854E-1,2.2057166E0,0E0,0E0,0E0,0E0,0E0,0E0,0E0,0E0],"parents":[2147483647,0,0,1,1,2,2,3,3,4,4,5,5,6,6],"right_children":[2,4,6,8,10,12,14,-1,-1,-1,-1,-1,-1,-1,-1],"split_conditions":[9E0,6E1,2.4E1,1.5E1,7.3E1,1.91E1,7.4E1,1.2477716E-2,-1.7807094E-2,5.7839382E-2,1.0143337E-2,-6.349186E-3,-3.2585274E-2,8.697152E-3,-2.836794E-2],"split_indices":[2,0,2,0,0,3,0,0,0,0,0,0,0,0,0],"split_type":[0,0,0,0,0,0,0,0,0,0,0,0,0,0,0],"sum_hessian":[8.176913E1,2.2857573E1,5.8911556E1,2.0618155E1,2.239418E0,1.6162638E1,4.274892E1,1.5074674E1,5.5434813E0,1.2358677E0,1.0035503E0,4.9856935E0,1.1176944E1,3.9267853E1,3.4810655E0],"tree_param":{"num_deleted":"0","num_feature":"5","num_nodes":"15","size_leaf_vector":"1"}},{"base_weights":[5.0547267E-3,3.1575277E-2,-1.7381277E-2,-2.5844434E-1,8.1931815E-2,1.0626394E-3,-3.8979456E-2,-2.2126385E-4,2.167967E-2],"categories":[],"categories_nodes":[],"categories_segments":[],"categories_sizes":[],"default_left":[0,0,0,0,0,0,0,0,0],"id":32,"left_children":[1,-1,3,5,7,-1,-1,-1,-1],"loss_changes":[1.1733202E0,0E0,1.9558995E0,3.4886246E0,1.763084E0,0E0,0E0,0E0,0E0],"parents":[2147483647,0,0,2,2,3,3,4,4],"right_children":[2,-1,4,6,8,-1,-1,-1,-1],"split_conditions":[1.09E1,3.1575277E-2,1.81E1,1.5E1,5.2E1,1.0626394E-3,-3.8979456E-2,-2.2126385E-4,2.167967E-2],"split_indices":[3,0,3,0,0,0,0,0,0],"split_type":[0,0,0,0,0,0,0,0,0],"sum_hessian":[8.169935E1,1.8862109E0,7.981314E1,2.2819923E1,5.6993214E1,1.5474185E1,7.3457384E0,4.6549522E1,1.0443691E1],"tree_param":{"num_deleted":"0","num_feature":"5","num_nodes":"9","size_leaf_vector":"1"}},{"base_weights":[4.9466365E-3,3.4023847E-2,-4.7908962E-1,-1.6139986E-1,1.2544116E-1,-4.055091E-2,4.1040797E-3,1.9570677E-2,-1.6254043E-2,7.951487E-4,2.8715283E-2],"categories":[],"categories_nodes":[],"categories_segments":[],"categories_sizes":[],"default_left":[0,0,0,0,0,0,0,0,0,0,0],"id":33,"left_children":[1,3,5,7,9,-1,-1,-1,-1,-1,-1],"loss_changes":[1.1787661E0,1.428864E0,9.5074487E-1,2.4406083E0,2.6597505E0,0E0,0E0,0E0,0E0,0E0,0E0],"parents":[2147483647,0,0,1,1,2,2,3,3,4,4],"right_children":[2,4,6,8,10,-1,-1,-1,-1,-1,-1],"split_conditions":[2.46E1,1.81E1,3.7E1,-3.2E1,5.2E1,-4.055091E-2,4.1040797E-3,1.9570677E-2,-1.6254043E-2,7.951487E-4,2.8715283E-2],"split_indices":[3,3,2,0,0,0,0,0,0,0,0],"split_type":[0,0,0,0,0,0,0,0,0,0,0],"sum_hessian":[8.159419E1,7.784742E1,3.7467718E0,2.456629E1,5.3281128E1,2.074498E0,1.6722739E0,5.294254E0,1.9272038E1,4.3661636E1,9.6194935E0],"tree_param":{"num_deleted":"0","num_feature":"5","num_nodes":"11","size_leaf_vector":"1"}},{"base_weights":[4.624262E-3,1.8906346E-1,-6.907973E-2,7.648285E-2,4.415944E-2,-4.8882365E-1,9.521639E-2,8.692255E-3,-3.145286E-2,-5.4450072E-3,-3.1754397E-2,8.283748E-3,-2.82401E-2],"categories":[],"categories_nodes":[],"categories_segments":[],"categories_sizes":[],"default_left":[0,0,0,0,0,0,0,0,0,0,0,0,0],"id":34,"left_children":[1,3,5,7,-1,9,11,-1,-1,-1,-1,-1,-1],"loss_changes":[1.1341381E0,1.7933862E0,4.1605096E0,1.592117E0,0E0,8.724394E-1,2.1262915E0,0E0,0E0,0E0,0E0,0E0,0E0],"parents":[2147483647,0,0,1,1,2,2,3,3,5,5,6,6],"right_children":[2,4,6,8,-1,10,12,-1,-1,-1,-1,-1,-1],"split_conditions":[9E0,6E1,2.4E1,3E1,4.415944E-2,1.91E1,7.4E1,8.692255E-3,-3.145286E-2,-5.4450072E-3,-3.1754397E-2,8.283748E-3,-2.82401E-2],"split_indices":[2,0,2,0,0,3,0,0,0,0,0,0,0],"split_type":[0,0,0,0,0,0,0,0,0,0,0,0,0],"sum_hessian":[8.146914E1,2.2813854E1,5.865529E1,2.0585299E1,2.2285564E0,1.594464E1,4.2710648E1,1.8751282E1,1.8340163E0,4.917058E0,1.1027583E1,3.9267708E1,3.4429388E0],"tree_param":{"num_deleted":"0","num_feature":"5","num_nodes":"13","size_leaf_vector":"1"}},{"base_weights":[3.914337E-3,3.0621886E-2,-1.8023921E-2,-6.4208764E-1,1.8581493E-2,-4.6521623E-2,5.7292446E-3,1.45692425E-2,-1.8485541E-3],"categories":[],"categories_nodes":[],"categories_segments":[],"categories_sizes":[],"default_left":[0,0,0,0,0,0,0,0,0],"id":35,"left_children":[1,-1,3,5,7,-1,-1,-1,-1],"loss_changes":[1.111253E0,0E0,1.8512721E0,1.0861009E0,1.1781235E0,0E0,0E0,0E0,0E0],"parents":[2147483647,0,0,2,2,3,3,4,4],"right_children":[2,-1,4,6,8,-1,-1,-1,-1],"split_conditions":[1.09E1,3.0621886E-2,1.32E1,1.11E2,-4.2E1,-4.6521623E-2,5.7292446E-3,1.45692425E-2,-1.8485541E-3],"split_indices":[3,0,3,2,0,0,0,0,0],"split_type":[0,0,0,0,0,0,0,0,0],"sum_hessian":[8.141343E1,1.8963395E0,7.951709E1,3.4893012E0,7.602779E1,2.3602464E0,1.1290548E0,1.2144464E1,6.388332E1],"tree_param":{"num_deleted":"0","num_feature":"5","num_nodes":"9","size_leaf_vector":"1"}},{"base_weights":[3.7283131E-3,3.1496357E-2,-4.651617E-1,-1.5761769E-1,1.19555555E-1,-3.964785E-2,3.7689332E-3,1.7971E-2,-1.5636886E-2,6.841847E-4,2.7653044E-2],"categories":[],"categories_nodes":[],"categories_segments":[],"categories_sizes":[],"default_left":[0,0,0,0,0,0,0,0,0,0,0],"id":36,"left_children":[1,3,5,7,9,-1,-1,-1,-1,-1,-1],"loss_changes":[1.0872557E0,1.3296372E0,8.8710606E-1,2.1526208E0,2.4833393E0,0E0,0E0,0E0,0E0,0E0,0E0],"parents":[2147483647,0,0,1,1,2,2,3,3,4,4],"right_children":[2,4,6,8,10,-1,-1,-1,-1,-1,-1],"split_conditions":[2.46E1,1.81E1,3.7E1,-3.2E1,5.2E1,-3.964785E-2,3.7689332E-3,1.7971E-2,-1.5636886E-2,6.841847E-4,2.7653044E-2],"split_indices":[3,3,2,0,0,0,0,0,0,0,0],"split_type":[0,0,0,0,0,0,0,0,0,0,0],"sum_hessian":[8.138032E1,7.771103E1,3.6692822E0,2.443819E1,5.3272842E1,1.993444E0,1.6758381E0,5.3358803E0,1.910231E1,4.3645245E1,9.627596E0],"tree_param":{"num_deleted":"0","num_feature":"5","num_nodes":"11","size_leaf_vector":"1"}},{"base_weights":[3.4492062E-3,2.9765371E-2,-1.7999457E-2,-7.0257854E-1,1.2724565E-2,-1.1424841E-2,-4.0990062E-2,2.0813528E-3,-2.274506E-2],"categories":[],"categories_nodes":[],"categories_segments":[],"categories_sizes":[],"default_left":[0,0,0,0,0,0,0,0,0],"id":37,"left_children":[1,-1,3,5,7,-1,-1,-1,-1],"loss_changes":[1.0548865E0,0E0,1.6988902E0,5.456209E-3,1.0715075E0,0E0,0E0,0E0,0E0],"parents":[2147483647,0,0,2,2,3,3,4,4],"right_children":[2,-1,4,6,8,-1,-1,-1,-1],"split_conditions":[1.09E1,2.9765371E-2,1.29E1,1.19E1,2.46E1,-1.1424841E-2,-4.0990062E-2,2.0813528E-3,-2.274506E-2],"split_indices":[3,0,3,3,3,0,0,0,0],"split_type":[0,0,0,0,0,0,0,0,0],"sum_hessian":[8.1253395E1,1.9059268E0,7.934747E1,2.46891E0,7.687856E1,1.0741197E0,1.3947903E0,7.326148E1,3.617081E0],"tree_param":{"num_deleted":"0","num_feature":"5","num_nodes":"9","size_leaf_vector":"1"}},{"base_weights":[2.7363785E-3,1.7883472E-1,-6.783283E-2,7.161328E-2,8.3870226E-1,-4.7075093E-1,8.792078E-2,8.267849E-3,-3.072611E-2,5.290539E-2,8.7165935E-3,-4.6802233E-3,-3.0862553E-2,7.806014E-3,-2.7765214E-2],"categories":[],"categories_nodes":[],"categories_segments":[],"categories_sizes":[],"default_left":[0,0,0,0,0,0,0,0,0,0,0,0,0,0,0],"id":38,"left_children":[1,3,5,7,9,11,13,-1,-1,-1,-1,-1,-1,-1,-1],"loss_changes":[1.0341499E0,1.624072E0,3.7714558E0,1.4889879E0,2.8691864E-1,8.66487E-1,2.0041265E0,0E0,0E0,0E0,0E0,0E0,0E0,0E0,0E0],"parents":[2147483647,0,0,1,1,2,2,3,3,4,4,5,5,6,6],"right_children":[2,4,6,8,10,12,14,-1,-1,-1,-1,-1,-1,-1,-1],"split_conditions":[9E0,6E1,2.4E1,3E1,7.3E1,1.91E1,7.4E1,8.267849E-3,-3.072611E-2,5.290539E-2,8.7165935E-3,-4.6802233E-3,-3.0862553E-2,7.806014E-3,-2.7765214E-2],"split_indices":[2,0,2,0,0,3,0,0,0,0,0,0,0,0,0],"split_type":[0,0,0,0,0,0,0,0,0,0,0,0,0,0,0],"sum_hessian":[8.124102E1,2.280336E1,5.843766E1,2.0569553E1,2.2338064E0,1.5728162E1,4.27095E1,1.8764803E1,1.8047502E0,1.2337261E0,1.0000802E0,4.858777E0,1.0869385E1,3.9299915E1,3.4095836E0],"tree_param":{"num_deleted":"0","num_feature":"5","num_nodes":"15","size_leaf_vector":"1"}},{"base_weights":[2.3621342E-3,2.863926E-2,-1.8386481E-2,-6.107503E-1,1.5664505E-2,-4.5175355E-2,6.450161E-3,1.3461611E-2,-1.8162121E-3],"categories":[],"categories_nodes":[],"categories_segments":[],"categories_sizes":[],"default_left":[0,0,0,0,0,0,0,0,0],"id":39,"left_children":[1,-1,3,5,7,-1,-1,-1,-1],"loss_changes":[9.830305E-1,0E0,1.6283174E0,1.0667348E0,1.0230733E0,0E0,0E0,0E0,0E0],"parents":[2147483647,0,0,2,2,3,3,4,4],"right_children":[2,-1,4,6,8,-1,-1,-1,-1],"split_conditions":[1.09E1,2.863926E-2,1.32E1,1.11E2,-4.2E1,-4.5175355E-2,6.450161E-3,1.3461611E-2,-1.8162121E-3],"split_indices":[3,0,3,2,0,0,0,0,0],"split_type":[0,0,0,0,0,0,0,0,0],"sum_hessian":[8.116805E1,1.9149903E0,7.925306E1,3.3874447E0,7.5865616E1,2.268375E0,1.1190697E0,1.219714E1,6.3668476E1],"tree_param":{"num_deleted":"0","num_feature":"5","num_nodes":"9","size_leaf_vector":"1"}},{"base_weights":[2.2432285E-3,1.7074136E-1,-6.548444E-2,-1.4138654E-1,3.7412894E-1,-4.5315018E-1,8.276617E-2,-2.5284646E-2,1.1966738E-2,8.9554535E-3,5.6026924E-2,-4.2749546E-3,-2.9861564E-2,7.3872395E-3,-2.6766336E-2],"categories":[],"categories_nodes":[],"categories_segments":[],"categories_sizes":[],"default_left":[0,0,0,0,0,0,0,0,0,0,0,0,0,0,0],"id":40,"left_children":[1,3,5,7,9,11,13,-1,-1,-1,-1,-1,-1,-1,-1],"loss_changes":[9.484482E-1,1.5653467E0,3.4458966E0,1.5253978E0,1.9389901E0,8.26154E-1,1.8360317E0,0E0,0E0,0E0,0E0,0E0,0E0,0E0,0E0],"parents":[2147483647,0,0,1,1,2,2,3,3,4,4,5,5,6,6],"right_children":[2,4,6,8,10,12,14,-1,-1,-1,-1,-1,-1,-1,-1],"split_conditions":[9E0,1.93E1,2.4E1,-9E0,5.2E1,1.91E1,7.4E1,-2.5284646E-2,1.1966738E-2,8.9554535E-3,5.6026924E-2,-4.2749546E-3,-2.9861564E-2,7.3872395E-3,-2.6766336E-2],"split_indices":[2,3,2,0,0,3,0,0,0,0,0,0,0,0,0],"split_type":[0,0,0,0,0,0,0,0,0,0,0,0,0,0,0],"sum_hessian":[8.113008E1,2.2824507E1,5.8305573E1,9.1252775E0,1.3699228E1,1.5560146E1,4.2745426E1,4.4954247E0,4.629853E0,1.1844493E1,1.8547361E0,4.8296804E0,1.0730466E1,3.9367756E1,3.3776715E0],"tree_param":{"num_deleted":"0","num_feature":"5","num_nodes":"15","size_leaf_vector":"1"}},{"base_weights":[2.0675072E-3,2.7565796E-2,-4.3833366E-1,-3.0039126E-2,3.0180743E-1,-3.8347136E-2,3.946948E-3,3.0795094E-3,-2.3525782E-2,3.3535656E-2,-1.5486619E-2],"categories":[],"categories_nodes":[],"categories_segments":[],"categories_sizes":[],"default_left":[0,0,0,0,0,0,0,0,0,0,0],"id":41,"left_children":[1,3,5,7,9,-1,-1,-1,-1,-1,-1],"loss_changes":[9.333588E-1,1.2490512E0,8.338159E-1,2.6837294E0,3.302035E0,0E0,0E0,0E0,0E0,0E0,0E0],"parents":[2147483647,0,0,1,1,2,2,3,3,4,4],"right_children":[2,4,6,8,10,-1,-1,-1,-1,-1,-1],"split_conditions":[2.46E1,4.8E1,3.7E1,2.5E1,7.4E1,-3.8347136E-2,3.946948E-3,3.0795094E-3,-2.3525782E-2,3.3535656E-2,-1.5486619E-2],"split_indices":[3,0,2,0,0,0,0,0,0,0,0],"split_type":[0,0,0,0,0,0,0,0,0,0,0],"sum_hessian":[8.1040855E1,7.749166E1,3.5491943E0,6.477585E1,1.2715812E1,1.8752396E0,1.6739547E0,5.4333412E1,1.0442434E1,7.870965E0,4.8448462E0],"tree_param":{"num_deleted":"0","num_feature":"5","num_nodes":"11","size_leaf_vector":"1"}},{"base_weights":[1.4806582E-3,-1.5562023E-1,7.0290245E-2,3.3091074E-1,-3.0333364E-1,1.8539359E-1,-1.2522557E-1,-1.5320565E-2,4.4040553E-2,5.191444E-3,-3.811465E-2,1.4790877E-2,-1.19286105E-2,-1.1319371E-2,3.8556054E-2],"categories":[],"categories_nodes":[],"categories_segments":[],"categories_sizes":[],"default_left":[0,0,0,0,0,0,0,0,0,0,0,0,0,0,0],"id":42,"left_children":[1,3,5,7,9,11,13,-1,-1,-1,-1,-1,-1,-1,-1],"loss_changes":[8.9702743E-1,1.9170275E0,1.3215269E0,2.5007315E0,3.8002186E0,1.7894776E0,2.1671722E0,0E0,0E0,0E0,0E0,0E0,0E0,0E0,0E0],"parents":[2147483647,0,0,1,1,2,2,3,3,4,4,5,5,6,6],"right_children":[2,4,6,8,10,12,14,-1,-1,-1,-1,-1,-1,-1,-1],"split_conditions":[1.81E1,-3.2E1,2E0,1.47E1,1.57E1,7.3E1,6.5E1,-1.5320565E-2,4.4040553E-2,5.191444E-3,-3.811465E-2,1.4790877E-2,-1.19286105E-2,-1.1319371E-2,3.8556054E-2],"split_indices":[3,0,1,3,3,2,0,0,0,0,0,0,0,0,0],"split_type":[0,0,0,0,0,0,0,0,0,0,0,0,0,0,0],"sum_hessian":[8.096902E1,2.4277906E1,5.6691105E1,5.365401E0,1.8912506E1,3.571618E1,2.0974926E1,2.6902497E0,2.675151E0,1.0431791E1,8.480716E0,2.857575E1,7.14043E0,1.9519398E1,1.4555295E0],"tree_param":{"num_deleted":"0","num_feature":"5","num_nodes":"15","size_leaf_vector":"1"}},{"base_weights":[1.6659654E-3,-2.1579936E-2,4.7371265E-1,-2.2820096E-1,6.342096E-2,4.0303946E-2,1.0418876E-3,1.2378491E-3,-3.3786457E-2,5.027519E-3,-3.3681847E-2],"categories":[],"categories_nodes":[],"categories_segments":[],"categories_sizes":[],"default_left":[0,0,0,0,0,0,0,0,0,0,0],"id":43,"left_children":[1,3,5,7,9,-1,-1,-1,-1,-1,-1],"loss_changes":[9.079672E-1,1.4007092E0,5.6772584E-1,2.64577E0,1.6195793E0,0E0,0E0,0E0,0E0,0E0,0E0],"parents":[2147483647,0,0,1,1,2,2,3,3,4,4],"right_children":[2,4,6,8,10,-1,-1,-1,-1,-1,-1],"split_conditions":[1.8E2,1.81E1,2.41E2,1.5E1,1.02E2,4.0303946E-2,1.0418876E-3,1.2378491E-3,-3.3786457E-2,5.027519E-3,-3.3681847E-2],"split_indices":[2,3,2,0,2,0,0,0,0,0,0],"split_type":[0,0,0,0,0,0,0,0,0,0,0],"sum_hessian":[8.0812836E1,7.792949E1,2.8833473E0,2.2223557E1,5.5705933E1,1.2131199E0,1.6702274E0,1.4801776E1,7.4217806E0,5.3856483E1,1.8494514E0],"tree_param":{"num_deleted":"0","num_feature":"5","num_nodes":"11","size_leaf_vector":"1"}},{"base_weights":[1.3056108E-3,2.9976858E-2,-1.684094E-2,-3.5669386E-1,3.0242737E-2,-3.3112947E-2,1.3055967E-3,3.272377E-2,-5.8337674E-4],"categories":[],"categories_nodes":[],"categories_segments":[],"categories_sizes":[],"default_left":[0,0,0,0,0,0,0,0,0],"id":44,"left_children":[1,-1,3,5,7,-1,-1,-1,-1],"loss_changes":[8.9747405E-1,0E0,1.2958392E0,1.169503E0,1.8770971E0,0E0,0E0,0E0,0E0],"parents":[2147483647,0,0,2,2,3,3,4,4],"right_children":[2,-1,4,6,8,-1,-1,-1,-1],"split_conditions":[1.07E1,2.9976858E-2,1.47E1,-2E0,1.57E1,-3.3112947E-2,1.3055967E-3,3.272377E-2,-5.8337674E-4],"split_indices":[3,0,3,0,3,0,0,0,0],"split_type":[0,0,0,0,0,0,0,0,0],"sum_hessian":[8.074193E1,1.433855E0,7.930807E1,8.850301E0,7.045777E1,4.5157247E0,4.3345757E0,3.513269E0,6.69445E1],"tree_param":{"num_deleted":"0","num_feature":"5","num_nodes":"9","size_leaf_vector":"1"}},{"base_weights":[1.5893034E-3,2.6310198E-2,-4.2890385E-1,-2.8911393E-2,3.0072662E-1,-3.772726E-2,3.7388657E-3,-3.5748703E-3,2.6889324E-2,-5.092605E-3,2.4728416E-2],"categories":[],"categories_nodes":[],"categories_segments":[],"categories_sizes":[],"default_left":[0,0,0,0,0,0,0,0,0,0,0],"id":45,"left_children":[1,3,5,7,9,-1,-1,-1,-1,-1,-1],"loss_changes":[8.810694E-1,1.1942263E0,7.938923E-1,1.6322243E0,1.0799537E0,0E0,0E0,0E0,0E0,0E0,0E0],"parents":[2147483647,0,0,1,1,2,2,3,3,4,4],"right_children":[2,4,6,8,10,-1,-1,-1,-1,-1,-1],"split_conditions":[2.46E1,2.35E1,3.7E1,1.66E2,-2.1E1,-3.772726E-2,3.7388657E-3,-3.5748703E-3,2.6889324E-2,-5.092605E-3,2.4728416E-2],"split_indices":[3,3,2,2,0,0,0,0,0,0,0],"split_type":[0,0,0,0,0,0,0,0,0,0,0],"sum_hessian":[8.072998E1,7.723375E1,3.4962332E0,6.504018E1,1.2193573E1,1.8209114E0,1.6753218E0,6.130694E1,3.733237E0,4.117251E0,8.076323E0],"tree_param":{"num_deleted":"0","num_feature":"5","num_nodes":"11","size_leaf_vector":"1"}},{"base_weights":[1.6009678E-3,1.6523644E-1,-6.420538E-2,6.559556E-2,3.9294343E-2,-4.327523E-1,7.484583E-2,7.881946E-3,-3.0589325E-2,-3.4548137E-3,-2.8836643E-2,6.7539425E-3,-2.529412E-2],"categories":[],"categories_nodes":[],"categories_segments":[],"categories_sizes":[],"default_left":[0,0,0,0,0,0,0,0,0,0,0,0,0],"id":46,"left_children":[1,3,5,7,-1,9,11,-1,-1,-1,-1,-1,-1],"loss_changes":[8.898205E-1,1.4139526E0,3.0534453E0,1.4375818E0,0E0,8.1342244E-1,1.5953267E0,0E0,0E0,0E0,0E0,0E0,0E0],"parents":[2147483647,0,0,1,1,2,2,3,3,5,5,6,6],"right_children":[2,4,6,8,-1,10,12,-1,-1,-1,-1,-1,-1],"split_conditions":[9E0,6E1,2.4E1,3E1,3.9294343E-2,1.91E1,7.4E1,7.881946E-3,-3.0589325E-2,-3.4548137E-3,-2.8836643E-2,6.7539425E-3,-2.529412E-2],"split_indices":[2,0,2,0,0,3,0,0,0,0,0,0,0],"split_type":[0,0,0,0,0,0,0,0,0,0,0,0,0],"sum_hessian":[8.0648476E1,2.2697481E1,5.7950993E1,2.0510378E1,2.1871028E0,1.529646E1,4.2654533E1,1.8732298E1,1.7780815E0,4.758265E0,1.0538195E1,3.9341442E1,3.3130898E0],"tree_param":{"num_deleted":"0","num_feature":"5","num_nodes":"13","size_leaf_vector":"1"}},{"base_weights":[1.0646103E-3,2.6444096E-2,-1.8332925E-2,-5.933444E-1,1.4271109E-2,-4.381366E-2,5.363976E-3,1.2614797E-2,-1.7433513E-3],"categories":[],"categories_nodes":[],"categories_segments":[],"categories_sizes":[],"default_left":[0,0,0,0,0,0,0,0,0],"id":47,"left_children":[1,-1,3,5,7,-1,-1,-1,-1],"loss_changes":[8.4489316E-1,0E0,1.5017247E0,9.4587255E-1,9.0182585E-1,0E0,0E0,0E0,0E0],"parents":[2147483647,0,0,2,2,3,3,4,4],"right_children":[2,-1,4,6,8,-1,-1,-1,-1],"split_conditions":[1.09E1,2.6444096E-2,1.32E1,1.11E2,-4.2E1,-4.381366E-2,5.363976E-3,1.2614797E-2,-1.7433513E-3],"split_indices":[3,0,3,2,0,0,0,0,0],"split_type":[0,0,0,0,0,0,0,0,0],"sum_hessian":[8.057534E1,1.9251643E0,7.865017E1,3.2974348E0,7.535274E1,2.1703079E0,1.1271269E0,1.2186582E1,6.3166157E1],"tree_param":{"num_deleted":"0","num_feature":"5","num_nodes":"9","size_leaf_vector":"1"}},{"base_weights":[9.790007E-4,2.4660049E-2,-4.1686568E-1,-3.249249E-2,2.8177446E-1,-3.692963E-2,3.4609442E-3,2.756895E-3,-2.4370542E-2,3.0984914E-2,-1.2617575E-2],"categories":[],"categories_nodes":[],"categories_segments":[],"categories_sizes":[],"default_left":[0,0,0,0,0,0,0,0,0,0,0],"id":48,"left_children":[1,3,5,7,9,-1,-1,-1,-1,-1,-1],"loss_changes":[8.1705916E-1,1.1568903E0,7.4374396E-1,2.610008E0,2.7388124E0,0E0,0E0,0E0,0E0,0E0,0E0],"parents":[2147483647,0,0,1,1,2,2,3,3,4,4],"right_children":[2,4,6,8,10,-1,-1,-1,-1,-1,-1],"split_conditions":[2.46E1,4.7E1,3.7E1,2.5E1,7.3E1,-3.692963E-2,3.4609442E-3,2.756895E-3,-2.4370542E-2,3.0984914E-2,-1.2617575E-2],"split_indices":[3,0,2,0,0,0,0,0,0,0,0],"split_type":[0,0,0,0,0,0,0,0,0,0,0],"sum_hessian":[8.053403E1,7.710513E1,3.4288955E0,6.3797554E1,1.3307579E1,1.7506872E0,1.6782084E0,5.4230076E1,9.56748E0,8.052695E0,5.2548842E0],"tree_param":{"num_deleted":"0","num_feature":"5","num_nodes":"11","size_leaf_vector":"1"}},{"base_weights":[4.463206E-4,1.5612361E-1,-6.2315907E-2,-8.414783E-2,3.935738E-1,-4.788054E-1,5.20961E-2,7.59504E-3,-4.7564443E-2,4.8666403E-2,1.9005701E-3,-8.09409E-3,-3.3515926E-2,5.139421E-3,-2.3976147E-2],"categories":[],"categories_nodes":[],"categories_segments":[],"categories_sizes":[],"default_left":[0,0,0,0,0,0,0,0,0,0,0,0,0,0,0],"id":49,"left_children":[1,3,5,7,9,11,13,-1,-1,-1,-1,-1,-1,-1,-1],"loss_changes":[8.0574495E-1,1.3848821E0,2.8257382E0,2.7236784E0,2.4557924E0,6.6624856E-1,1.3162142E0,0E0,0E0,0E0,0E0,0E0,0E0,0E0,0E0],"parents":[2147483647,0,0,1,1,2,2,3,3,4,4,5,5,6,6],"right_children":[2,4,6,8,10,12,14,-1,-1,-1,-1,-1,-1,-1,-1],"split_conditions":[9E0,-9E0,1.8E1,-1.9E1,1.5E1,1.2E1,7.4E1,7.59504E-3,-4.7564443E-2,4.8666403E-2,1.9005701E-3,-8.09409E-3,-3.3515926E-2,5.139421E-3,-2.3976147E-2],"split_indices":[2,0,2,0,0,2,0,0,0,0,0,0,0,0,0],"split_type":[0,0,0,0,0,0,0,0,0,0,0,0,0,0,0],"sum_hessian":[8.0470085E1,2.2693333E1,5.7776752E1,1.160056E1,1.10927725E1,1.1764821E1,4.6011932E1,9.766736E0,1.8338243E0,3.5564501E0,7.536322E0,5.126523E0,6.638298E0,4.2742855E1,3.269078E0],"tree_param":{"num_deleted":"0","num_feature":"5","num_nodes":"15","size_leaf_vector":"1"}},{"base_weights":[-2.4176388E-4,-1.4855403E-1,6.4153016E-2,3.107315E-1,-2.9000568E-1,3.4224197E-2,3.988727E-2,-1.195898E-2,4.6670027E-2,5.0645024E-3,-3.6958423E-2,7.586488E-3,-8.3510345E-3],"categories":[],"categories_nodes":[],"categories_segments":[],"categories_sizes":[],"default_left":[0,0,0,0,0,0,0,0,0,0,0,0,0],"id":50,"left_children":[1,3,5,7,9,11,-1,-1,-1,-1,-1,-1,-1],"loss_changes":[7.871232E-1,1.71105E0,1.2344508E0,2.4001813E0,3.5183837E0,1.3557602E0,0E0,0E0,0E0,0E0,0E0,0E0,0E0],"parents":[2147483647,0,0,1,1,2,2,3,3,4,4,5,5],"right_children":[2,4,6,8,10,12,-1,-1,-1,-1,-1,-1,-1],"split_conditions":[1.81E1,-3.2E1,7.9E1,-5.5E1,1.57E1,2E0,3.988727E-2,-1.195898E-2,4.6670027E-2,5.0645024E-3,-3.6958423E-2,7.586488E-3,-8.3510345E-3],"split_indices":[3,0,0,0,3,1,0,0,0,0,0,0,0],"split_type":[0,0,0,0,0,0,0,0,0,0,0,0,0],"sum_hessian":[8.0418785E1,2.3950266E1,5.6468517E1,5.357625E0,1.8592642E1,5.5260666E1,1.2078502E0,3.1720788E0,2.1855462E0,1.0350297E1,8.242345E0,3.5044476E1,2.0216192E1],"tree_param":{"num_deleted":"0","num_feature":"5","num_nodes":"13","size_leaf_vector":"1"}},{"base_weights":[2.3802661E-4,2.3039633E-2,-4.067491E-1,-3.9577156E-2,2.5443977E-1,-3.616282E-2,3.087819E-3,2.519936E-3,-3.2788727E-2,-5.4938137E-3,3.3467818E-2],"categories":[],"categories_nodes":[],"categories_segments":[],"categories_sizes":[],"default_left":[0,0,0,0,0,0,0,0,0,0,0],"id":51,"left_children":[1,3,5,7,9,-1,-1,-1,-1,-1,-1],"loss_changes":[7.6361E-1,1.138957E0,6.9201297E-1,3.4806726E0,2.6020446E0,0E0,0E0,0E0,0E0,0E0,0E0],"parents":[2147483647,0,0,1,1,2,2,3,3,4,4],"right_children":[2,4,6,8,10,-1,-1,-1,-1,-1,-1],"split_conditions":[2.46E1,4.1E1,3.7E1,2.5E1,2.06E1,-3.616282E-2,3.087819E-3,2.519936E-3,-3.2788727E-2,-5.4938137E-3,3.3467818E-2],"split_indices":[3,0,2,0,3,0,0,0,0,0,0],"split_type":[0,0,0,0,0,0,0,0,0,0,0],"sum_hessian":[8.027606E1,7.691051E1,3.3655505E0,6.11833E1,1.572721E1,1.6840848E0,1.6814659E0,5.418895E1,6.994349E0,8.765701E0,6.9615088E0],"tree_param":{"num_deleted":"0","num_feature":"5","num_nodes":"11","size_leaf_vector":"1"}},{"base_weights":[-2.4519657E-4,2.7498795E-2,-1.709084E-2,-3.4711787E-1,2.8466295E-2,-3.2536477E-2,1.5046353E-3,3.0870993E-2,-5.866015E-4],"categories":[],"categories_nodes":[],"categories_segments":[],"categories_sizes":[],"default_left":[0,0,0,0,0,0,0,0,0],"id":52,"left_children":[1,-1,3,5,7,-1,-1,-1,-1],"loss_changes":[7.620412E-1,0E0,1.2090648E0,1.136241E0,1.688371E0,0E0,0E0,0E0,0E0],"parents":[2147483647,0,0,2,2,3,3,4,4],"right_children":[2,-1,4,6,8,-1,-1,-1,-1],"split_conditions":[1.07E1,2.7498795E-2,1.47E1,-2E0,1.57E1,-3.2536477E-2,1.5046353E-3,3.0870993E-2,-5.866015E-4],"split_indices":[3,0,3,0,3,0,0,0,0],"split_type":[0,0,0,0,0,0,0,0,0],"sum_hessian":[8.020137E1,1.4423585E0,7.875902E1,8.750301E0,7.000871E1,4.446369E0,4.3039317E0,3.5555985E0,6.645312E1],"tree_param":{"num_deleted":"0","num_feature":"5","num_nodes":"9","size_leaf_vector":"1"}},{"base_weights":[7.6483E-5,-2.1273246E-2,4.3049976E-1,1.1052661E-2,-5.463416E-1,-1.5849565E-4,3.8060468E-2,-1.5061079E-3,3.623325E-2,-4.6203572E-2,-2.2855767E-3],"categories":[],"categories_nodes":[],"categories_segments":[],"categories_sizes":[],"default_left":[0,0,0,0,0,0,0,0,0,0,0],"id":53,"left_children":[1,3,5,7,9,-1,-1,-1,-1,-1,-1],"loss_changes":[7.5520253E-1,1.3350731E0,5.5940944E-1,2.2179196E0,8.202381E-1,0E0,0E0,0E0,0E0,0E0,0E0],"parents":[2147483647,0,0,1,1,2,2,3,3,4,4],"right_children":[2,4,6,8,10,-1,-1,-1,-1,-1,-1],"split_conditions":[1.8E2,1.12E2,-1.5E1,9E1,1.58E2,-1.5849565E-4,3.8060468E-2,-1.5061079E-3,3.623325E-2,-4.6203572E-2,-2.2855767E-3],"split_indices":[2,2,0,2,2,0,0,0,0,0,0],"split_type":[0,0,0,0,0,0,0,0,0,0,0],"sum_hessian":[8.018515E1,7.7301445E1,2.8837075E0,7.374055E1,3.5608974E0,1.6761435E0,1.2075639E0,7.062343E1,3.1171217E0,1.5474873E0,2.0134099E0],"tree_param":{"num_deleted":"0","num_feature":"5","num_nodes":"11","size_leaf_vector":"1"}},{"base_weights":[3.558969E-4,1.512223E-1,-6.0572147E-2,-1.4114991E-1,3.410106E-1,-3.844706E-1,7.365557E-2,-2.4773123E-2,1.1380653E-2,5.845019E-3,4.4961147E-2,8.15335E-3,-3.1353176E-2,2.8529823E-2,-9.855664E-4],"categories":[],"categories_nodes":[],"categories_segments":[],"categories_sizes":[],"default_left":[0,0,0,0,0,0,0,0,0,0,0,0,0,0,0],"id":54,"left_children":[1,3,5,7,9,11,13,-1,-1,-1,-1,-1,-1,-1,-1],"loss_changes":[7.551731E-1,1.3595256E0,2.572785E0,1.420636E0,1.7243062E0,2.4013E0,1.9700344E0,0E0,0E0,0E0,0E0,0E0,0E0,0E0,0E0],"parents":[2147483647,0,0,1,1,2,2,3,3,4,4,5,5,6,6],"right_children":[2,4,6,8,10,12,14,-1,-1,-1,-1,-1,-1,-1,-1],"split_conditions":[9E0,1.93E1,2.7E1,-9E0,7E0,1.91E1,4.5E1,-2.4773123E-2,1.1380653E-2,5.845019E-3,4.4961147E-2,8.15335E-3,-3.1353176E-2,2.8529823E-2,-9.855664E-4],"split_indices":[2,3,2,0,2,3,2,0,0,0,0,0,0,0,0],"split_type":[0,0,0,0,0,0,0,0,0,0,0,0,0,0,0],"sum_hessian":[8.0159004E1,2.2633442E1,5.7525566E1,9.009865E0,1.3623577E1,1.6308352E1,4.1217213E1,4.419739E0,4.590126E0,1.058382E1,3.0397568E0,5.1077847E0,1.1200566E1,5.710739E0,3.5506474E1],"tree_param":{"num_deleted":"0","num_feature":"5","num_nodes":"15","size_leaf_vector":"1"}},{"base_weights":[8.006954E-4,-1.427873E-1,6.2897325E-2,4.7538143E-2,-5.0297964E-1,3.412966E-2,3.82583E-2,-6.802134E-3,3.5250124E-2,1.7269973E-2,-4.395514E-2,7.2286627E-3,-7.8405095E-3],"categories":[],"categories_nodes":[],"categories_segments":[],"categories_sizes":[],"default_left":[0,0,0,0,0,0,0,0,0,0,0,0,0],"id":55,"left_children":[1,3,5,7,9,11,-1,-1,-1,-1,-1,-1,-1],"loss_changes":[7.3186E-1,1.7228163E0,1.1313243E0,2.16323E0,3.0651011E0,1.2053677E0,0E0,0E0,0E0,0E0,0E0,0E0,0E0],"parents":[2147483647,0,0,1,1,2,2,3,3,4,4,5,5],"right_children":[2,4,6,8,10,12,-1,-1,-1,-1,-1,-1,-1],"split_conditions":[1.81E1,1.5E1,7.9E1,4E0,1.37E1,2E0,3.82583E-2,-6.802134E-3,3.5250124E-2,1.7269973E-2,-4.395514E-2,7.2286627E-3,-7.8405095E-3],"split_indices":[3,0,0,0,3,1,0,0,0,0,0,0,0],"split_type":[0,0,0,0,0,0,0,0,0,0,0,0,0],"sum_hessian":[8.00736E1,2.3782091E1,5.629151E1,1.6128056E1,7.6540356E0,5.5083668E1,1.207843E0,1.322764E1,2.9004154E0,2.376136E0,5.2778997E0,3.5051804E1,2.0031864E1],"tree_param":{"num_deleted":"0","num_feature":"5","num_nodes":"13","size_leaf_vector":"1"}},{"base_weights":[1.1928033E-3,2.0902006E-1,-4.1676667E-2,-2.8004065E-1,4.4713977E-1,-2.6637083E-1,8.5014656E-2,-2.8083045E-2,1.3856395E-2,5.6556143E-2,8.240867E-3,-1.6792072E-2,2.6802574E-3,2.6796117E-2,-4.131137E-3],"categories":[],"categories_nodes":[],"categories_segments":[],"categories_sizes":[],"default_left":[0,0,0,0,0,0,0,0,0,0,0,0,0,0,0],"id":56,"left_children":[1,3,5,7,9,11,13,-1,-1,-1,-1,-1,-1,-1,-1],"loss_changes":[7.2989285E-1,1.756527E0,1.9566134E0,9.7188556E-1,1.707175E0,5.6787384E-1,3.3853838E0,0E0,0E0,0E0,0E0,0E0,0E0,0E0,0E0],"parents":[2147483647,0,0,1,1,2,2,3,3,4,4,5,5,6,6],"right_children":[2,4,6,8,10,12,14,-1,-1,-1,-1,-1,-1,-1,-1],"split_conditions":[-4.2E1,-7E1,-3E0,2.4E1,5E0,6.8E1,1.5E1,-2.8083045E-2,1.3856395E-2,5.6556143E-2,8.240867E-3,-1.6792072E-2,2.6802574E-3,2.6796117E-2,-4.131137E-3],"split_indices":[0,0,0,2,2,2,0,0,0,0,0,0,0,0,0],"split_type":[0,0,0,0,0,0,0,0,0,0,0,0,0,0,0],"sum_hessian":[7.994574E1,1.3008071E1,6.693767E1,4.2019243E0,8.806147E0,2.3736729E1,4.320094E1,2.7857878E0,1.4161365E0,1.6944664E0,7.11168E0,1.9461765E1,4.274963E0,1.11128645E1,3.2088078E1],"tree_param":{"num_deleted":"0","num_feature":"5","num_nodes":"15","size_leaf_vector":"1"}},{"base_weights":[1.8260832E-3,1.5008508E-1,-5.8135316E-2,5.639539E-2,3.7024803E-2,-4.437556E-1,4.5374587E-2,7.33649E-3,-3.0614007E-2,-6.9778226E-3,-3.1605702E-2,4.735953E-3,-2.3685543E-2],"categories":[],"categories_nodes":[],"categories_segments":[],"categories_sizes":[],"default_left":[0,0,0,0,0,0,0,0,0,0,0,0,0],"id":57,"left_children":[1,3,5,7,-1,9,11,-1,-1,-1,-1,-1,-1],"loss_changes":[7.2772676E-1,1.262027E0,2.347576E0,1.3839743E0,0E0,6.2412953E-1,1.2455767E0,0E0,0E0,0E0,0E0,0E0,0E0],"parents":[2147483647,0,0,1,1,2,2,3,3,5,5,6,6],"right_children":[2,4,6,8,-1,10,12,-1,-1,-1,-1,-1,-1],"split_conditions":[9E0,6E1,1.8E1,3E1,3.7024803E-2,1.2E1,7.4E1,7.33649E-3,-3.0614007E-2,-6.9778226E-3,-3.1605702E-2,4.735953E-3,-2.3685543E-2],"split_indices":[2,0,2,0,0,2,0,0,0,0,0,0,0],"split_type":[0,0,0,0,0,0,0,0,0,0,0,0,0],"sum_hessian":[7.9879234E1,2.257006E1,5.730917E1,2.0424507E1,2.145555E0,1.1432174E1,4.5877E1,1.8681328E1,1.7431788E0,5.037506E0,6.3946676E0,4.264105E1,3.2359486E0],"tree_param":{"num_deleted":"0","num_feature":"5","num_nodes":"13","size_leaf_vector":"1"}},{"base_weights":[1.1636704E-3,2.4208404E-2,-1.678205E-2,-3.295986E-2,1.1138536E-2,-4.4688713E-4,2.6035631E-2],"categories":[],"categories_nodes":[],"categories_segments":[],"categories_sizes":[],"default_left":[0,0,0,0,0,0,0],"id":58,"left_children":[1,-1,3,-1,5,-1,-1],"loss_changes":[7.0860636E-1,0E0,1.4222733E0,0E0,7.881227E-1,0E0,0E0],"parents":[2147483647,0,0,2,2,4,4],"right_children":[2,-1,4,-1,6,-1,-1],"split_conditions":[1.09E1,2.4208404E-2,1.29E1,-3.295986E-2,1.8E2,-4.4688713E-4,2.6035631E-2],"split_indices":[3,0,3,0,2,0,0],"split_type":[0,0,0,0,0,0,0],"sum_hessian":[7.98136E1,1.9285153E0,7.788508E1,2.3023095E0,7.558277E1,7.366304E1,1.9197274E0],"tree_param":{"num_deleted":"0","num_feature":"5","num_nodes":"7","size_leaf_vector":"1"}},{"base_weights":[1.3053013E-3,2.3014238E-2,-3.9171448E-1,-3.780358E-2,2.4815272E-1,-3.5201453E-2,2.8348693E-3,2.3329356E-3,-3.1360175E-2,-5.284279E-3,3.2454353E-2],"categories":[],"categories_nodes":[],"categories_segments":[],"categories_sizes":[],"default_left":[0,0,0,0,0,0,0,0,0,0,0],"id":59,"left_children":[1,3,5,7,9,-1,-1,-1,-1,-1,-1],"loss_changes":[6.9821393E-1,1.0704614E0,6.3984305E-1,3.109787E0,2.425529E0,0E0,0E0,0E0,0E0,0E0,0E0],"parents":[2147483647,0,0,1,1,2,2,3,3,4,4],"right_children":[2,4,6,8,10,-1,-1,-1,-1,-1,-1],"split_conditions":[2.46E1,4.1E1,3.7E1,2.5E1,2.06E1,-3.5201453E-2,2.8348693E-3,2.3329356E-3,-3.1360175E-2,-5.284279E-3,3.2454353E-2],"split_indices":[3,0,2,0,3,0,0,0,0,0,0],"split_type":[0,0,0,0,0,0,0,0,0,0,0],"sum_hessian":[7.977773E1,7.6493935E1,3.283795E0,6.0880154E1,1.5613782E1,1.5996232E0,1.684172E0,5.405482E1,6.8253355E0,8.685199E0,6.9285836E0],"tree_param":{"num_deleted":"0","num_feature":"5","num_nodes":"11","size_leaf_vector":"1"}},{"base_weights":[7.843522E-4,2.3387281E-2,-1.6616674E-2,-5.6716716E-1,1.3983632E-2,-4.2201873E-2,4.7978065E-3,1.1448395E-2,-1.5432618E-3],"categories":[],"categories_nodes":[],"categories_segments":[],"categories_sizes":[],"default_left":[0,0,0,0,0,0,0,0,0],"id":60,"left_children":[1,-1,3,5,7,-1,-1,-1,-1],"loss_changes":[6.635245E-1,0E0,1.3349429E0,8.468902E-1,7.359564E-1,0E0,0E0,0E0,0E0],"parents":[2147483647,0,0,2,2,3,3,4,4],"right_children":[2,-1,4,6,8,-1,-1,-1,-1],"split_conditions":[1.09E1,2.3387281E-2,1.32E1,1.11E2,-4.2E1,-4.2201873E-2,4.7978065E-3,1.1448395E-2,-1.5432618E-3],"split_indices":[3,0,3,2,0,0,0,0,0],"split_type":[0,0,0,0,0,0,0,0,0],"sum_hessian":[7.970195E1,1.9335756E0,7.776838E1,3.1715853E0,7.4596794E1,2.0449476E0,1.1266376E0,1.216728E1,6.2429512E1],"tree_param":{"num_deleted":"0","num_feature":"5","num_nodes":"9","size_leaf_vector":"1"}},{"base_weights":[6.7789666E-4,-9.7658105E-2,8.467082E-2,1.8779345E-1,-2.5661045E-1,5.124958E-1,-7.619361E-2,-1.3863451E-2,2.0650467E-2,-1.75999E-2,-9.3321706E-4,3.472368E-2,-1.1411235E-2,-2.4055412E-2,3.0391961E-3],"categories":[],"categories_nodes":[],"categories_segments":[],"categories_sizes":[],"default_left":[0,0,0,0,0,0,0,0,0,0,0,0,0,0,0],"id":61,"left_children":[1,3,5,7,9,11,13,-1,-1,-1,-1,-1,-1,-1,-1],"loss_changes":[6.7447597E-1,1.7551943E0,3.0698102E0,1.5843953E0,5.515003E-1,1.798023E0,1.8526107E0,0E0,0E0,0E0,0E0,0E0,0E0,0E0,0E0],"parents":[2147483647,0,0,1,1,2,2,3,3,4,4,5,5,6,6],"right_children":[2,4,6,8,10,12,14,-1,-1,-1,-1,-1,-1,-1,-1],"split_conditions":[-3E0,-4.2E1,1.5E1,-7E1,2.25E1,7.3E1,1.81E1,-1.3863451E-2,2.0650467E-2,-1.75999E-2,-9.3321706E-4,3.472368E-2,-1.1411235E-2,-2.4055412E-2,3.0391961E-3],"split_indices":[0,0,0,0,3,2,3,0,0,0,0,0,0,0,0],"split_type":[0,0,0,0,0,0,0,0,0,0,0,0,0,0,0],"sum_hessian":[7.965923E1,3.6621433E1,4.30378E1,1.3033688E1,2.3587746E1,1.1163136E1,3.1874664E1,4.177069E0,8.856618E0,1.6495667E1,7.092079E0,9.011623E0,2.1515121E0,7.4221077E0,2.4452557E1],"tree_param":{"num_deleted":"0","num_feature":"5","num_nodes":"15","size_leaf_vector":"1"}},{"base_weights":[4.7338553E-4,2.1775316E-2,-3.8702288E-1,-3.7560623E-2,2.4134335E-1,-3.478895E-2,2.5911166E-3,2.1046465E-3,-3.011787E-2,-4.7147823E-3,3.0854572E-2],"categories":[],"categories_nodes":[],"categories_segments":[],"categories_sizes":[],"default_left":[0,0,0,0,0,0,0,0,0,0,0],"id":62,"left_children":[1,3,5,7,9,-1,-1,-1,-1,-1,-1],"loss_changes":[6.735451E-1,1.016478E0,6.121914E-1,2.8029082E0,2.1498618E0,0E0,0E0,0E0,0E0,0E0,0E0],"parents":[2147483647,0,0,1,1,2,2,3,3,4,4],"right_children":[2,4,6,8,10,-1,-1,-1,-1,-1,-1],"split_conditions":[2.46E1,4.1E1,3.7E1,2.5E1,2.06E1,-3.478895E-2,2.5911166E-3,2.1046465E-3,-3.011787E-2,-4.7147823E-3,3.0854572E-2],"split_indices":[3,0,2,0,3,0,0,0,0,0,0],"split_type":[0,0,0,0,0,0,0,0,0,0,0],"sum_hessian":[7.9577156E1,7.632512E1,3.2520351E0,6.0739777E1,1.5585347E1,1.565281E0,1.6867541E0,5.4043472E1,6.696304E0,8.627675E0,6.957672E0],"tree_param":{"num_deleted":"0","num_feature":"5","num_nodes":"11","size_leaf_vector":"1"}},{"base_weights":[-3.150417E-6,2.5624812E-2,-1.5852913E-2,-3.2821855E-1,2.6831519E-2,-3.126638E-2,1.8175654E-3,3.0471181E-2,-6.6024903E-4],"categories":[],"categories_nodes":[],"categories_segments":[],"categories_sizes":[],"default_left":[0,0,0,0,0,0,0,0,0],"id":63,"left_children":[1,-1,3,5,7,-1,-1,-1,-1],"loss_changes":[6.6201085E-1,0E0,1.0628366E0,1.0603471E0,1.6518478E0,0E0,0E0,0E0,0E0],"parents":[2147483647,0,0,2,2,3,3,4,4],"right_children":[2,-1,4,6,8,-1,-1,-1,-1],"split_conditions":[1.07E1,2.5624812E-2,1.47E1,-2E0,1.57E1,-3.126638E-2,1.8175654E-3,3.0471181E-2,-6.6024903E-4],"split_indices":[3,0,3,0,3,0,0,0,0],"split_type":[0,0,0,0,0,0,0,0,0],"sum_hessian":[7.949819E1,1.4448419E0,7.805335E1,8.579434E0,6.9473915E1,4.332986E0,4.246449E0,3.5528486E0,6.592107E1],"tree_param":{"num_deleted":"0","num_feature":"5","num_nodes":"9","size_leaf_vector":"1"}},{"base_weights":[3.0113535E-4,-1.9883081E-2,4.0386757E-1,1.2052261E-2,-5.3859574E-1,-8.0560864E-4,3.6474664E-2,-1.4073397E-3,3.5048217E-2,-4.5279637E-2,-2.5980764E-3],"categories":[],"categories_nodes":[],"categories_segments":[],"categories_sizes":[],"default_left":[0,0,0,0,0,0,0,0,0,0,0],"id":64,"left_children":[1,3,5,7,9,-1,-1,-1,-1,-1,-1],"loss_changes":[6.6359824E-1,1.2919583E0,5.424216E-1,2.0712106E0,7.606107E-1,0E0,0E0,0E0,0E0,0E0,0E0],"parents":[2147483647,0,0,1,1,2,2,3,3,4,4],"right_children":[2,4,6,8,10,-1,-1,-1,-1,-1,-1],"split_conditions":[1.8E2,1.12E2,-1.5E1,9E1,1.58E2,-8.0560864E-4,3.6474664E-2,-1.4073397E-3,3.5048217E-2,-4.5279637E-2,-2.5980764E-3],"split_indices":[2,2,0,2,2,0,0,0,0,0,0],"split_type":[0,0,0,0,0,0,0,0,0,0,0],"sum_hessian":[7.948052E1,7.660013E1,2.880394E0,7.307775E1,3.5223792E0,1.6730615E0,1.2073325E0,6.995492E1,3.1228316E0,1.5172263E0,2.005153E0],"tree_param":{"num_deleted":"0","num_feature":"5","num_nodes":"11","size_leaf_vector":"1"}},{"base_weights":[5.3944153E-4,1.4171422E-1,-5.6623388E-2,-1.2995677E-1,3.166625E-1,-4.3267542E-1,4.331989E-2,-2.3389777E-2,1.0820648E-2,5.0778026E-3,4.2645644E-2,-7.115503E-3,-3.0710233E-2,4.5438255E-3,-2.3044718E-2],"categories":[],"categories_nodes":[],"categories_segments":[],"categories_sizes":[],"default_left":[0,0,0,0,0,0,0,0,0,0,0,0,0,0,0],"id":65,"left_children":[1,3,5,7,9,11,13,-1,-1,-1,-1,-1,-1,-1,-1],"loss_changes":[6.572757E-1,1.156777E0,2.1978617E0,1.2601417E0,1.5939405E0,5.590739E-1,1.1620559E0,0E0,0E0,0E0,0E0,0E0,0E0,0E0,0E0],"parents":[2147483647,0,0,1,1,2,2,3,3,4,4,5,5,6,6],"right_children":[2,4,6,8,10,12,14,-1,-1,-1,-1,-1,-1,-1,-1],"split_conditions":[9E0,1.93E1,1.8E1,-9E0,7E0,1.2E1,7.4E1,-2.3389777E-2,1.0820648E-2,5.0778026E-3,4.2645644E-2,-7.115503E-3,-3.0710233E-2,4.5438255E-3,-2.3044718E-2],"split_indices":[2,3,2,0,2,2,0,0,0,0,0,0,0,0,0],"split_type":[0,0,0,0,0,0,0,0,0,0,0,0,0,0,0],"sum_hessian":[7.945296E1,2.2472816E1,5.698014E1,8.903719E0,1.3569098E1,1.1264921E1,4.571522E1,4.3298974E0,4.5738215E0,1.0533265E1,3.0358334E0,5.019663E0,6.245259E0,4.2524178E1,3.1910417E0],"tree_param":{"num_deleted":"0","num_feature":"5","num_nodes":"15","size_leaf_vector":"1"}},{"base_weights":[2.14143E-4,2.0833272E-2,-3.7827182E-1,-3.566976E-2,2.2969766E-1,-3.420431E-2,2.435967E-3,2.031569E-3,-2.9150164E-2,-4.6877745E-3,2.9555878E-2],"categories":[],"categories_nodes":[],"categories_segments":[],"categories_sizes":[],"default_left":[0,0,0,0,0,0,0,0,0,0,0],"id":66,"left_children":[1,3,5,7,9,-1,-1,-1,-1,-1,-1],"loss_changes":[6.351458E-1,9.1893804E-1,5.823838E-1,2.5964856E0,1.992049E0,0E0,0E0,0E0,0E0,0E0,0E0],"parents":[2147483647,0,0,1,1,2,2,3,3,4,4],"right_children":[2,4,6,8,10,-1,-1,-1,-1,-1,-1],"split_conditions":[2.46E1,4.1E1,3.7E1,2.5E1,2.06E1,-3.420431E-2,2.435967E-3,2.031569E-3,-2.9150164E-2,-4.6877745E-3,2.9555878E-2],"split_indices":[3,0,2,0,3,0,0,0,0,0,0],"split_type":[0,0,0,0,0,0,0,0,0,0,0],"sum_hessian":[7.937688E1,7.6172134E1,3.2047434E0,6.0605934E1,1.5566197E1,1.5165032E0,1.68824E0,5.4003353E1,6.602583E0,8.605388E0,6.9608097E0],"tree_param":{"num_deleted":"0","num_feature":"5","num_nodes":"11","size_leaf_vector":"1"}},{"base_weights":[-2.4791513E-4,-1.9863946E-2,3.9098033E-1,1.1031778E-2,-5.241951E-1,3.5554852E-2,-1.2079186E-3,-1.3791781E-3,3.334338E-2,-4.4248544E-2,-2.5148622E-3],"categories":[],"categories_nodes":[],"categories_segments":[],"categories_sizes":[],"default_left":[0,0,0,0,0,0,0,0,0,0,0],"id":67,"left_children":[1,3,5,7,9,-1,-1,-1,-1,-1,-1],"loss_changes":[6.239908E-1,1.2120305E0,5.33091E-1,1.8905734E0,7.230327E-1,0E0,0E0,0E0,0E0,0E0,0E0],"parents":[2147483647,0,0,1,1,2,2,3,3,4,4],"right_children":[2,4,6,8,10,-1,-1,-1,-1,-1,-1],"split_conditions":[1.8E2,1.12E2,2.41E2,9E1,1.58E2,3.5554852E-2,-1.2079186E-3,-1.3791781E-3,3.334338E-2,-4.4248544E-2,-2.5148622E-3],"split_indices":[2,2,2,2,2,0,0,0,0,0,0],"split_type":[0,0,0,0,0,0,0,0,0,0,0],"sum_hessian":[7.929667E1,7.64145E1,2.8821666E0,7.292517E1,3.489328E0,1.2247998E0,1.6573669E0,6.97748E1,3.1503704E0,1.48862E0,2.0007076E0],"tree_param":{"num_deleted":"0","num_feature":"5","num_nodes":"11","size_leaf_vector":"1"}},{"base_weights":[-4.1724134E-6,1.3617352E-1,-5.521837E-2,-1.23844385E-1,3.031834E-1,-4.196277E-1,4.0684648E-2,-2.262116E-2,1.0491053E-2,3.7368701E-3,3.8580254E-2,-7.0172586E-3,-2.9796112E-2,4.3291496E-3,-2.2432402E-2],"categories":[],"categories_nodes":[],"categories_segments":[],"categories_sizes":[],"default_left":[0,0,0,0,0,0,0,0,0,0,0,0,0,0,0],"id":68,"left_children":[1,3,5,7,9,11,13,-1,-1,-1,-1,-1,-1,-1,-1],"loss_changes":[6.110359E-1,1.0556297E0,2.037828E0,1.1780177E0,1.5009503E0,5.138531E-1,1.0874074E0,0E0,0E0,0E0,0E0,0E0,0E0,0E0,0E0],"parents":[2147483647,0,0,1,1,2,2,3,3,4,4,5,5,6,6],"right_children":[2,4,6,8,10,12,14,-1,-1,-1,-1,-1,-1,-1,-1],"split_conditions":[9E0,1.93E1,1.8E1,-9E0,2.1E1,1.2E1,7.4E1,-2.262116E-2,1.0491053E-2,3.7368701E-3,3.8580254E-2,-7.0172586E-3,-2.9796112E-2,4.3291496E-3,-2.2432402E-2],"split_indices":[2,3,2,0,0,2,0,0,0,0,0,0,0,0,0],"split_type":[0,0,0,0,0,0,0,0,0,0,0,0,0,0,0],"sum_hessian":[7.926616E1,2.2444305E1,5.6821854E1,8.879016E0,1.356529E1,1.1135184E1,4.5686672E1,4.294281E0,4.584735E0,9.897768E0,3.6675217E0,5.0040092E0,6.131175E0,4.2521324E1,3.1653485E0],"tree_param":{"num_deleted":"0","num_feature":"5","num_nodes":"15","size_leaf_vector":"1"}},{"base_weights":[-3.4404953E-4,1.9726783E-2,-3.713668E-1,-2.94607E-2,2.4173269E-1,-1.5841845E-3,-3.8273647E-2,1.9301771E-3,-2.0099407E-2,2.6961464E-2,-1.1961699E-2,-2.906507E-2,2.8556913E-2],"categories":[],"categories_nodes":[],"categories_segments":[],"categories_sizes":[],"default_left":[0,0,0,0,0,0,0,0,0,0,0,0,0],"id":69,"left_children":[1,3,5,7,9,11,-1,-1,-1,-1,-1,-1,-1],"loss_changes":[6.044194E-1,8.481356E-1,6.0581976E-1,1.6367451E0,2.1432872E0,1.378212E0,0E0,0E0,0E0,0E0,0E0,0E0,0E0],"parents":[2147483647,0,0,1,1,2,2,3,3,4,4,5,5],"right_children":[2,4,6,8,10,12,-1,-1,-1,-1,-1,-1,-1],"split_conditions":[2.46E1,4.7E1,2.4E1,2.5E1,7.3E1,2.1E1,-3.8273647E-2,1.9301771E-3,-2.0099407E-2,2.6961464E-2,-1.1961699E-2,-2.906507E-2,2.8556913E-2],"split_indices":[3,0,0,0,0,2,0,0,0,0,0,0,0],"split_type":[0,0,0,0,0,0,0,0,0,0,0,0,0],"sum_hessian":[7.9181915E1,7.6016556E1,3.1653574E0,6.2939106E1,1.307745E1,2.1510687E0,1.0142888E0,5.3973938E1,8.965168E0,8.004944E0,5.0725055E0,1.0615622E0,1.0895064E0],"tree_param":{"num_deleted":"0","num_feature":"5","num_nodes":"13","size_leaf_vector":"1"}},{"base_weights":[-8.749357E-4,-1.629466E-2,2.4245912E-2,1.8048493E-2,-3.2559764E-2,-5.15681E-4,3.397879E-2],"categories":[],"categories_nodes":[],"categories_segments":[],"categories_sizes":[],"default_left":[0,0,0,0,0,0,0],"id":70,"left_children":[1,3,-1,5,-1,-1,-1],"loss_changes":[6.08052E-1,1.7260443E0,0E0,1.42468E0,0E0,0E0,0E0],"parents":[2147483647,0,0,1,1,3,3],"right_children":[2,4,-1,6,-1,-1,-1],"split_conditions":[7.9E1,7.4E1,2.4245912E-2,6.5E1,-3.2559764E-2,-5.15681E-4,3.397879E-2],"split_indices":[0,0,0,0,0,0,0],"split_type":[0,0,0,0,0,0,0],"sum_hessian":[7.911836E1,7.7621025E1,1.4973375E0,7.455951E1,3.0615132E0,7.2438225E1,2.1212842E0],"tree_param":{"num_deleted":"0","num_feature":"5","num_nodes":"7","size_leaf_vector":"1"}},{"base_weights":[-5.2445213E-4,-9.237505E-2,7.805408E-2,1.8172441E-1,-2.4596974E-1,4.8177153E-1,-7.6442435E-2,-1.3058736E-2,1.9659491E-2,-1.6901158E-2,-8.588981E-4,3.273875E-2,-1.1319793E-2,-2.3211526E-2,2.6256933E-3],"categories":[],"categories_nodes":[],"categories_segments":[],"categories_sizes":[],"default_left":[0,0,0,0,0,0,0,0,0,0,0,0,0,0,0],"id":71,"left_children":[1,3,5,7,9,11,13,-1,-1,-1,-1,-1,-1,-1,-1],"loss_changes":[5.851222E-1,1.618228E0,2.7622325E0,1.4136767E0,5.0762403E-1,1.6466589E0,1.6478714E0,0E0,0E0,0E0,0E0,0E0,0E0,0E0,0E0],"parents":[2147483647,0,0,1,1,2,2,3,3,4,4,5,5,6,6],"right_children":[2,4,6,8,10,12,14,-1,-1,-1,-1,-1,-1,-1,-1],"split_conditions":[-3E0,-4.2E1,1.5E1,-7E1,2.25E1,7.3E1,1.81E1,-1.3058736E-2,1.9659491E-2,-1.6901158E-2,-8.588981E-4,3.273875E-2,-1.1319793E-2,-2.3211526E-2,2.6256933E-3],"split_indices":[0,0,0,0,3,2,3,0,0,0,0,0,0,0,0],"split_type":[0,0,0,0,0,0,0,0,0,0,0,0,0,0,0],"sum_hessian":[7.9071106E1,3.6375793E1,4.2695312E1,1.2997603E1,2.337819E1,1.1230464E1,3.1464848E1,4.124359E0,8.873244E0,1.6330324E1,7.047866E0,9.086139E0,2.1443253E0,7.203399E0,2.4261448E1],"tree_param":{"num_deleted":"0","num_feature":"5","num_nodes":"15","size_leaf_vector":"1"}},{"base_weights":[-6.758123E-4,2.4419827E-2,-1.584588E-2,-3.1701458E-1,2.5096778E-2,-3.0449336E-2,1.9344868E-3,3.0323578E-2,-7.5237604E-4],"categories":[],"categories_nodes":[],"categories_segments":[],"categories_sizes":[],"default_left":[0,0,0,0,0,0,0,0,0],"id":72,"left_children":[1,-1,3,5,7,-1,-1,-1,-1],"loss_changes":[6.0116035E-1,0E0,9.76481E-1,1.007437E0,1.6445439E0,0E0,0E0,0E0,0E0],"parents":[2147483647,0,0,2,2,3,3,4,4],"right_children":[2,-1,4,6,8,-1,-1,-1,-1],"split_conditions":[1.07E1,2.4419827E-2,1.47E1,-2E0,1.57E1,-3.0449336E-2,1.9344868E-3,3.0323578E-2,-7.5237604E-4],"split_indices":[3,0,3,0,3,0,0,0,0],"split_type":[0,0,0,0,0,0,0,0,0],"sum_hessian":[7.898389E1,1.43773E0,7.754616E1,8.47348E0,6.907268E1,4.2625775E0,4.210903E0,3.550248E0,6.552243E1],"tree_param":{"num_deleted":"0","num_feature":"5","num_nodes":"9","size_leaf_vector":"1"}},{"base_weights":[-3.4164634E-4,-1.9531636E-2,3.8207892E-1,1.04488535E-2,-5.1090056E-1,-1.2277843E-3,3.5049085E-2,-1.3504713E-3,3.2117963E-2,-4.3270346E-2,-2.4367722E-3],"categories":[],"categories_nodes":[],"categories_segments":[],"categories_sizes":[],"default_left":[0,0,0,0,0,0,0,0,0,0,0],"id":73,"left_children":[1,3,5,7,9,-1,-1,-1,-1,-1,-1],"loss_changes":[5.9429574E-1,1.1410649E0,5.190052E-1,1.7604705E0,6.874784E-1,0E0,0E0,0E0,0E0,0E0,0E0],"parents":[2147483647,0,0,1,1,2,2,3,3,4,4],"right_children":[2,4,6,8,10,-1,-1,-1,-1,-1,-1],"split_conditions":[1.8E2,1.12E2,-1.5E1,9E1,1.58E2,-1.2277843E-3,3.5049085E-2,-1.3504713E-3,3.2117963E-2,-4.3270346E-2,-2.4367722E-3],"split_indices":[2,2,0,2,2,0,0,0,0,0,0],"split_type":[0,0,0,0,0,0,0,0,0,0,0],"sum_hessian":[7.896477E1,7.609521E1,2.8695564E0,7.264176E1,3.4534452E0,1.6669804E0,1.202576E0,6.948038E1,3.1613886E0,1.4605875E0,1.9928578E0],"tree_param":{"num_deleted":"0","num_feature":"5","num_nodes":"11","size_leaf_vector":"1"}},{"base_weights":[-9.9765944E-5,1.970208E-2,-3.6737767E-1,-3.2988712E-2,2.1483214E-1,-5.6876587E-3,-3.7576716E-2,1.8602693E-3,-2.7399842E-2,-4.6298113E-3,2.7801825E-2,-2.8695643E-2,2.745125E-2],"categories":[],"categories_nodes":[],"categories_segments":[],"categories_sizes":[],"default_left":[0,0,0,0,0,0,0,0,0,0,0,0,0],"id":74,"left_children":[1,3,5,7,9,11,-1,-1,-1,-1,-1,-1,-1],"loss_changes":[5.8856755E-1,7.9663074E-1,5.7095927E-1,2.2375662E0,1.7781155E0,1.3048182E0,0E0,0E0,0E0,0E0,0E0,0E0,0E0],"parents":[2147483647,0,0,1,1,2,2,3,3,4,4,5,5],"right_children":[2,4,6,8,10,12,-1,-1,-1,-1,-1,-1,-1],"split_conditions":[2.46E1,4.1E1,2.4E1,2.5E1,2.06E1,2.1E1,-3.7576716E-2,1.8602693E-3,-2.7399842E-2,-4.6298113E-3,2.7801825E-2,-2.8695643E-2,2.745125E-2],"split_indices":[3,0,0,0,3,2,0,0,0,0,0,0,0],"split_type":[0,0,0,0,0,0,0,0,0,0,0,0,0],"sum_hessian":[7.893221E1,7.579222E1,3.1399932E0,6.0331818E1,1.5460406E1,2.1399755E0,1.0000178E0,5.3911583E1,6.4202337E0,8.516014E0,6.9443917E0,1.0400141E0,1.0999614E0],"tree_param":{"num_deleted":"0","num_feature":"5","num_nodes":"13","size_leaf_vector":"1"}},{"base_weights":[-6.361271E-4,-1.9425193E-2,3.7339208E-1,9.383157E-3,-4.9476558E-1,3.439317E-2,-1.6076096E-3,-1.3346648E-3,3.0709526E-2,-4.2323645E-2,-2.1393015E-3],"categories":[],"categories_nodes":[],"categories_segments":[],"categories_sizes":[],"default_left":[0,0,0,0,0,0,0,0,0,0,0],"id":75,"left_children":[1,3,5,7,9,-1,-1,-1,-1,-1,-1],"loss_changes":[5.684589E-1,1.0588956E0,5.155546E-1,1.6216387E0,6.660707E-1,0E0,0E0,0E0,0E0,0E0,0E0],"parents":[2147483647,0,0,1,1,2,2,3,3,4,4],"right_children":[2,4,6,8,10,-1,-1,-1,-1,-1,-1],"split_conditions":[1.8E2,1.12E2,2.41E2,9E1,1.58E2,3.439317E-2,-1.6076096E-3,-1.3346648E-3,3.0709526E-2,-4.2323645E-2,-2.1393015E-3],"split_indices":[2,2,2,2,2,0,0,0,0,0,0],"split_type":[0,0,0,0,0,0,0,0,0,0,0],"sum_hessian":[7.885692E1,7.5987785E1,2.8691325E0,7.256989E1,3.417891E0,1.2239196E0,1.6452129E0,6.938686E1,3.1830263E0,1.431308E0,1.9865831E0],"tree_param":{"num_deleted":"0","num_feature":"5","num_nodes":"11","size_leaf_vector":"1"}},{"base_weights":[-3.9339077E-4,1.3104333E-1,-5.369925E-2,-1.1654052E-1,2.894961E-1,-3.186417E-1,7.248381E-2,2.7185257E-3,-3.867839E-2,6.8615414E-3,4.9893927E-2,9.0012485E-3,-2.575156E-2,4.4139452E-2,-1.1077545E-3],"categories":[],"categories_nodes":[],"categories_segments":[],"categories_sizes":[],"default_left":[0,0,0,0,0,0,0,0,0,0,0,0,0,0,0],"id":76,"left_children":[1,3,5,7,9,11,13,-1,-1,-1,-1,-1,-1,-1,-1],"loss_changes":[5.6629974E-1,9.4869566E-1,1.9453796E0,1.1441598E0,1.4279455E0,1.9275476E0,3.068919E0,0E0,0E0,0E0,0E0,0E0,0E0,0E0,0E0],"parents":[2147483647,0,0,1,1,2,2,3,3,4,4,5,5,6,6],"right_children":[2,4,6,8,10,12,14,-1,-1,-1,-1,-1,-1,-1,-1],"split_conditions":[9E0,1.93E1,3.7E1,1.9E1,8E0,1.91E1,4.4E1,2.7185257E-3,-3.867839E-2,6.8615414E-3,4.9893927E-2,9.0012485E-3,-2.575156E-2,4.4139452E-2,-1.1077545E-3],"split_indices":[2,3,2,3,2,3,2,0,0,0,0,0,0,0,0],"split_type":[0,0,0,0,0,0,0,0,0,0,0,0,0,0,0],"sum_hessian":[7.88223E1,2.23227E1,5.6499603E1,8.81449E0,1.3508211E1,1.7735573E1,3.876403E1,7.7228184E0,1.0916721E0,1.2100878E1,1.4073329E0,5.0347657E0,1.2700807E1,3.182998E0,3.5581036E1],"tree_param":{"num_deleted":"0","num_feature":"5","num_nodes":"15","size_leaf_vector":"1"}},{"base_weights":[1.7680557E-4,-1.4779143E-2,2.3475345E-2,1.8341059E-2,-6.322022E-1,-4.4476805E-4,3.269612E-2,-4.061725E-2,-1.4257736E-2],"categories":[],"categories_nodes":[],"categories_segments":[],"categories_sizes":[],"default_left":[0,0,0,0,0,0,0,0,0],"id":77,"left_children":[1,3,-1,5,7,-1,-1,-1,-1],"loss_changes":[5.666565E-1,1.6116816E0,0E0,1.3082088E0,1.9170642E-2,0E0,0E0,0E0,0E0],"parents":[2147483647,0,0,1,1,3,3,4,4],"right_children":[2,4,-1,6,8,-1,-1,-1,-1],"split_conditions":[7.9E1,7.4E1,2.3475345E-2,6.5E1,5.9E1,-4.4476805E-4,3.269612E-2,-4.061725E-2,-1.4257736E-2],"split_indices":[0,0,0,0,2,0,0,0,0],"split_type":[0,0,0,0,0,0,0,0,0],"sum_hessian":[7.874007E1,7.724698E1,1.4930875E0,7.423511E1,3.011873E0,7.2130135E1,2.104972E0,1.1001067E0,1.9117664E0],"tree_param":{"num_deleted":"0","num_feature":"5","num_nodes":"9","size_leaf_vector":"1"}},{"base_weights":[1.7456003E-4,1.940181E-2,-3.5955265E-1,-2.608209E-2,2.4328329E-1,-3.287327E-2,2.0470382E-3,-3.1726942E-3,2.3296082E-2,-5.6458963E-3,2.101192E-2],"categories":[],"categories_nodes":[],"categories_segments":[],"categories_sizes":[],"default_left":[0,0,0,0,0,0,0,0,0,0,0],"id":78,"left_children":[1,3,5,7,9,-1,-1,-1,-1,-1,-1],"loss_changes":[5.582465E-1,7.864427E-1,5.155163E-1,1.2169147E0,8.68912E-1,0E0,0E0,0E0,0E0,0E0,0E0],"parents":[2147483647,0,0,1,1,2,2,3,3,4,4],"right_children":[2,4,6,8,10,-1,-1,-1,-1,-1,-1],"split_conditions":[2.46E1,2.35E1,3.7E1,1.66E2,-2.1E1,-3.287327E-2,2.0470382E-3,-3.1726942E-3,2.3296082E-2,-5.6458963E-3,2.101192E-2],"split_indices":[3,3,2,2,0,0,0,0,0,0,0],"split_type":[0,0,0,0,0,0,0,0,0,0,0],"sum_hessian":[7.8702934E1,7.5607796E1,3.095136E0,6.3575302E1,1.2032496E1,1.4069313E0,1.6882045E0,5.989668E1,3.6786234E0,4.113707E0,7.918789E0],"tree_param":{"num_deleted":"0","num_feature":"5","num_nodes":"11","size_leaf_vector":"1"}},{"base_weights":[2.1213036E-4,1.8182592E-1,-3.7768375E-2,-6.450751E-2,5.498332E-1,-2.3204035E-1,7.106241E-2,-1.3393104E-2,2.390282E-2,4.7569823E-2,-2.1448303E-2,-1.618993E-2,-2.9234737E-4,2.2775814E-2,-3.8846717E-3],"categories":[],"categories_nodes":[],"categories_segments":[],"categories_sizes":[],"default_left":[0,0,0,0,0,0,0,0,0,0,0,0,0,0,0],"id":79,"left_children":[1,3,5,7,9,11,13,-1,-1,-1,-1,-1,-1,-1,-1],"loss_changes":[5.56109E-1,1.2995163E0,1.4263304E0,1.1483864E0,2.6469722E0,4.999026E-1,2.523429E0,0E0,0E0,0E0,0E0,0E0,0E0,0E0,0E0],"parents":[2147483647,0,0,1,1,2,2,3,3,4,4,5,5,6,6],"right_children":[2,4,6,8,10,12,14,-1,-1,-1,-1,-1,-1,-1,-1],"split_conditions":[-4.2E1,2.18E1,-3E0,-4.8E1,2.38E1,2.25E1,1.5E1,-1.3393104E-2,2.390282E-2,4.7569823E-2,-2.1448303E-2,-1.618993E-2,-2.9234737E-4,2.2775814E-2,-3.8846717E-3],"split_indices":[0,3,0,0,3,3,0,0,0,0,0,0,0,0,0],"split_type":[0,0,0,0,0,0,0,0,0,0,0,0,0,0,0],"sum_hessian":[7.862583E1,1.2943885E1,6.5681946E1,8.247774E0,4.6961107E0,2.3176985E1,4.250496E1,6.367514E0,1.88026E0,3.3498101E0,1.3463005E0,1.6181316E1,6.995668E0,1.12828045E1,3.1222155E1],"tree_param":{"num_deleted":"0","num_feature":"5","num_nodes":"15","size_leaf_vector":"1"}},{"base_weights":[6.607478E-4,2.1416001E-2,-1.5440457E-2,-3.1278253E-2,1.0238379E-2,-3.8961717E-4,2.3087978E-2],"categories":[],"categories_nodes":[],"categories_segments":[],"categories_sizes":[],"default_left":[0,0,0,0,0,0,0],"id":80,"left_children":[1,-1,3,-1,5,-1,-1],"loss_changes":[5.543416E-1,0E0,1.2225517E0,0E0,6.1803615E-1,0E0,0E0],"parents":[2147483647,0,0,2,2,4,4],"right_children":[2,-1,4,-1,6,-1,-1],"split_conditions":[1.09E1,2.1416001E-2,1.29E1,-3.1278253E-2,1.8E2,-3.8961717E-4,2.3087978E-2],"split_indices":[3,0,3,0,2,0,0],"split_type":[0,0,0,0,0,0,0],"sum_hessian":[7.854426E1,1.9209424E0,7.6623314E1,2.1511543E0,7.447216E1,7.255745E1,1.9147149E0],"tree_param":{"num_deleted":"0","num_feature":"5","num_nodes":"7","size_leaf_vector":"1"}},{"base_weights":[7.820324E-4,-1.24791384E-1,5.4197352E-2,3.133229E-1,-2.6400867E-1,3.472886E-2,2.5737705E-2,-5.968572E-3,5.2191425E-2,4.649024E-3,-3.445697E-2,-2.689621E-4,3.20033E-2],"categories":[],"categories_nodes":[],"categories_segments":[],"categories_sizes":[],"default_left":[0,0,0,0,0,0,0,0,0,0,0,0,0],"id":81,"left_children":[1,3,5,7,9,-1,11,-1,-1,-1,-1,-1,-1],"loss_changes":[5.400716E-1,1.5484114E0,1.0114386E0,2.1007633E0,2.914031E0,0E0,1.0569949E0,0E0,0E0,0E0,0E0,0E0,0E0],"parents":[2147483647,0,0,1,1,2,2,3,3,4,4,6,6],"right_children":[2,4,6,8,10,-1,12,-1,-1,-1,-1,-1,-1],"split_conditions":[1.81E1,-3.2E1,1.83E1,-4.3E1,1.57E1,3.472886E-2,7.7E1,-5.968572E-3,5.2191425E-2,4.649024E-3,-3.445697E-2,-2.689621E-4,3.20033E-2],"split_indices":[3,0,3,0,3,0,0,0,0,0,0,0,0],"split_type":[0,0,0,0,0,0,0,0,0,0,0,0,0],"sum_hessian":[7.850872E1,2.3030457E1,5.5478264E1,5.251977E0,1.777848E1,1.3647138E0,5.4113552E1,3.8237042E0,1.4282725E0,1.00883875E1,7.690093E0,5.244819E1,1.6653612E0],"tree_param":{"num_deleted":"0","num_feature":"5","num_nodes":"13","size_leaf_vector":"1"}},{"base_weights":[1.7485268E-3,2.0600596E-2,-3.5298708E-1,-2.9133199E-2,2.0472571E-1,-3.24398E-2,1.970432E-3,1.8833757E-3,-2.6290422E-2,-4.59744E-3,2.6654238E-2],"categories":[],"categories_nodes":[],"categories_segments":[],"categories_sizes":[],"default_left":[0,0,0,0,0,0,0,0,0,0,0],"id":82,"left_children":[1,3,5,7,9,-1,-1,-1,-1,-1,-1],"loss_changes":[5.3823674E-1,7.049819E-1,4.9702352E-1,2.0429015E0,1.6425834E0,0E0,0E0,0E0,0E0,0E0,0E0],"parents":[2147483647,0,0,1,1,2,2,3,3,4,4],"right_children":[2,4,6,8,10,-1,-1,-1,-1,-1,-1],"split_conditions":[2.46E1,4.1E1,3.7E1,2.5E1,2.06E1,-3.24398E-2,1.970432E-3,1.8833757E-3,-2.6290422E-2,-4.59744E-3,2.6654238E-2],"split_indices":[3,0,2,0,3,0,0,0,0,0,0],"split_type":[0,0,0,0,0,0,0,0,0,0,0],"sum_hessian":[7.839663E1,7.533495E1,3.061674E0,5.9976543E1,1.5358412E1,1.37312E0,1.6885542E0,5.368086E1,6.2956867E0,8.44672E0,6.911691E0],"tree_param":{"num_deleted":"0","num_feature":"5","num_nodes":"11","size_leaf_vector":"1"}},{"base_weights":[1.2264492E-3,2.0643767E-2,-1.4337539E-2,-3.0576307E-2,1.0580354E-2,-3.5995067E-4,2.2731451E-2],"categories":[],"categories_nodes":[],"categories_segments":[],"categories_sizes":[],"default_left":[0,0,0,0,0,0,0],"id":83,"left_children":[1,-1,3,-1,5,-1,-1],"loss_changes":[5.1410764E-1,0E0,1.1581697E0,0E0,5.9759027E-1,0E0,0E0],"parents":[2147483647,0,0,2,2,4,4],"right_children":[2,-1,4,-1,6,-1,-1],"split_conditions":[1.09E1,2.0643767E-2,1.29E1,-3.0576307E-2,1.8E2,-3.5995067E-4,2.2731451E-2],"split_indices":[3,0,3,0,2,0,0],"split_type":[0,0,0,0,0,0,0],"sum_hessian":[7.8318886E1,1.9232633E0,7.639562E1,2.1170166E0,7.42786E1,7.236495E1,1.9136493E0],"tree_param":{"num_deleted":"0","num_feature":"5","num_nodes":"7","size_leaf_vector":"1"}},{"base_weights":[1.3155424E-3,1.9621544E-2,-3.4565172E-1,-2.2736274E-2,2.2701932E-1,-3.1975016E-2,1.9195207E-3,-2.905959E-3,2.2078833E-2,2.7649853E-2,1.3416193E-3],"categories":[],"categories_nodes":[],"categories_segments":[],"categories_sizes":[],"default_left":[0,0,0,0,0,0,0,0,0,0,0],"id":84,"left_children":[1,3,5,7,9,-1,-1,-1,-1,-1,-1],"loss_changes":[5.103612E-1,6.75072E-1,4.790106E-1,1.0809299E0,8.3506095E-1,0E0,0E0,0E0,0E0,0E0,0E0],"parents":[2147483647,0,0,1,1,2,2,3,3,4,4],"right_children":[2,4,6,8,10,-1,-1,-1,-1,-1,-1],"split_conditions":[2.46E1,2.35E1,3.7E1,1.66E2,2.38E1,-3.1975016E-2,1.9195207E-3,-2.905959E-3,2.2078833E-2,2.7649853E-2,1.3416193E-3],"split_indices":[3,3,2,2,3,0,0,0,0,0,0],"split_type":[0,0,0,0,0,0,0,0,0,0,0],"sum_hessian":[7.8284004E1,7.52569E1,3.0271072E0,6.3232914E1,1.202398E1,1.3380896E0,1.6890178E0,5.9568344E1,3.66457E0,3.9041648E0,8.119815E0],"tree_param":{"num_deleted":"0","num_feature":"5","num_nodes":"11","size_leaf_vector":"1"}},{"base_weights":[1.4678063E-3,1.2695615E-1,-4.946718E-2,5.0980892E-2,3.1014198E-2,-3.9485353E-1,3.988407E-2,7.1680346E-3,-3.1926066E-2,-2.3506558E-2,6.4960755E-3,3.4977086E-2,4.3171542E-4],"categories":[],"categories_nodes":[],"categories_segments":[],"categories_sizes":[],"default_left":[0,0,0,0,0,0,0,0,0,0,0,0,0],"id":85,"left_children":[1,3,5,7,-1,9,11,-1,-1,-1,-1,-1,-1],"loss_changes":[5.1263136E-1,8.361221E-1,1.7768992E0,1.4388155E0,0E0,5.2804804E-1,9.473007E-1,0E0,0E0,0E0,0E0,0E0,0E0],"parents":[2147483647,0,0,1,1,2,2,3,3,5,5,6,6],"right_children":[2,4,6,8,-1,10,12,-1,-1,-1,-1,-1,-1],"split_conditions":[9E0,6E1,1.8E1,3E1,3.1014198E-2,2.37E1,2E1,7.1680346E-3,-3.1926066E-2,-2.3506558E-2,6.4960755E-3,3.4977086E-2,4.3171542E-4],"split_indices":[2,0,2,0,0,3,2,0,0,0,0,0,0],"split_type":[0,0,0,0,0,0,0,0,0,0,0,0,0],"sum_hessian":[7.821952E1,2.2151768E1,5.606775E1,2.0151642E1,2.0001256E0,1.0820829E1,4.524692E1,1.846921E1,1.6824319E0,9.554403E0,1.2664258E0,1.0792527E0,4.4167667E1],"tree_param":{"num_deleted":"0","num_feature":"5","num_nodes":"13","size_leaf_vector":"1"}},{"base_weights":[1.6831888E-3,2.7238464E-2,-2.4443562E-1,-2.0344075E-2,3.4600767E-1,-6.438578E-1,3.513772E-2,-2.7145508E-3,2.1152388E-2,2.2050155E-2,-7.956862E-3,-4.5544125E-2,-1.5528247E-2],"categories":[],"categories_nodes":[],"categories_segments":[],"categories_sizes":[],"default_left":[0,0,0,0,0,0,0,0,0,0,0,0,0],"id":86,"left_children":[1,3,5,7,9,11,-1,-1,-1,-1,-1,-1,-1],"loss_changes":[5.04477E-1,1.10828E0,3.3071518E0,9.880613E-1,5.253531E-1,2.3590231E-1,0E0,0E0,0E0,0E0,0E0,0E0,0E0],"parents":[2147483647,0,0,1,1,2,2,3,3,4,4,5,5],"right_children":[2,4,6,8,10,12,-1,-1,-1,-1,-1,-1,-1],"split_conditions":[2.43E1,2.35E1,6.1E1,1.66E2,6.9E1,-1E1,3.513772E-2,-2.7145508E-3,2.1152388E-2,2.2050155E-2,-7.956862E-3,-4.5544125E-2,-1.5528247E-2],"split_indices":[3,3,2,2,2,0,0,0,0,0,0,0,0],"split_type":[0,0,0,0,0,0,0,0,0,0,0,0,0],"sum_hessian":[7.814912E1,7.160362E1,6.545497E0,6.311818E1,8.485443E0,4.8292756E0,1.7162212E0,5.9444542E1,3.6736343E0,7.2491713E0,1.2362719E0,1.7190462E0,3.1102295E0],"tree_param":{"num_deleted":"0","num_feature":"5","num_nodes":"13","size_leaf_vector":"1"}},{"base_weights":[1.6656558E-3,1.7409311E-1,-3.4586783E-2,-2.3773351E-1,3.6700758E-1,-2.2148892E-1,6.9818966E-2,-2.543371E-2,1.3350429E-2,5.1189493E-2,5.093591E-3,-8.151257E-3,-3.171867E-2,2.2111332E-2,-3.7732606E-3],"categories":[],"categories_nodes":[],"categories_segments":[],"categories_sizes":[],"default_left":[0,0,0,0,0,0,0,0,0,0,0,0,0,0,0],"id":87,"left_children":[1,3,5,7,9,11,13,-1,-1,-1,-1,-1,-1,-1,-1],"loss_changes":[5.003861E-1,1.191958E0,1.3069147E0,8.254218E-1,1.6130931E0,4.749341E-1,2.3719177E0,0E0,0E0,0E0,0E0,0E0,0E0,0E0,0E0],"parents":[2147483647,0,0,1,1,2,2,3,3,4,4,5,5,6,6],"right_children":[2,4,6,8,10,12,14,-1,-1,-1,-1,-1,-1,-1,-1],"split_conditions":[-4.2E1,-7E1,-3E0,2.4E1,5E0,1.12E2,1.5E1,-2.543371E-2,1.3350429E-2,5.1189493E-2,5.093591E-3,-8.151257E-3,-3.171867E-2,2.2111332E-2,-3.7732606E-3],"split_indices":[0,0,0,2,2,2,0,0,0,0,0,0,0,0,0],"split_type":[0,0,0,0,0,0,0,0,0,0,0,0,0,0,0],"sum_hessian":[7.808679E1,1.2904913E1,6.518188E1,4.0425982E0,8.862314E0,2.2959486E1,4.222239E1,2.625477E0,1.4171213E0,1.7258177E0,7.1364965E0,2.1333536E1,1.62595E0,1.1275632E1,3.0946758E1],"tree_param":{"num_deleted":"0","num_feature":"5","num_nodes":"15","size_leaf_vector":"1"}},{"base_weights":[1.8482879E-3,2.2502461E-2,-1.218109E-2,-3.1163377E-1,2.844021E-2,-2.9606417E-2,1.4226543E-3,2.8882736E-2,-5.13351E-4],"categories":[],"categories_nodes":[],"categories_segments":[],"categories_sizes":[],"default_left":[0,0,0,0,0,0,0,0,0],"id":88,"left_children":[1,-1,3,5,7,-1,-1,-1,-1],"loss_changes":[5.024178E-1,0E0,9.528555E-1,9.090883E-1,1.4781101E0,0E0,0E0,0E0,0E0],"parents":[2147483647,0,0,2,2,3,3,4,4],"right_children":[2,-1,4,6,8,-1,-1,-1,-1],"split_conditions":[1.07E1,2.2502461E-2,1.47E1,-2E0,1.57E1,-2.9606417E-2,1.4226543E-3,2.8882736E-2,-5.13351E-4],"split_indices":[3,0,3,0,3,0,0,0,0],"split_type":[0,0,0,0,0,0,0,0,0],"sum_hessian":[7.8029465E1,1.4250147E0,7.660445E1,8.353358E0,6.825109E1,4.171613E0,4.181745E0,3.5767734E0,6.467432E1],"tree_param":{"num_deleted":"0","num_feature":"5","num_nodes":"9","size_leaf_vector":"1"}},{"base_weights":[2.0269668E-3,-1.2097049E-2,2.2096306E-2,2.0618597E-2,-6.24054E-1,-2.2674569E-4,3.0380214E-2,-9.3405405E-3,-3.636543E-2],"categories":[],"categories_nodes":[],"categories_segments":[],"categories_sizes":[],"default_left":[0,0,0,0,0,0,0,0,0],"id":89,"left_children":[1,3,-1,5,7,-1,-1,-1,-1],"loss_changes":[4.962537E-1,1.5649939E0,0E0,1.1036199E0,4.319775E-2,0E0,0E0,0E0,0E0],"parents":[2147483647,0,0,1,1,3,3,4,4],"right_children":[2,4,-1,6,8,-1,-1,-1,-1],"split_conditions":[7.9E1,7.4E1,2.2096306E-2,6.5E1,1.94E1,-2.2674569E-4,3.0380214E-2,-9.3405405E-3,-3.636543E-2],"split_indices":[0,0,0,0,3,0,0,0,0],"split_type":[0,0,0,0,0,0,0,0,0],"sum_hessian":[7.801118E1,7.65266E1,1.4845694E0,7.3560326E1,2.966279E0,7.148915E1,2.071179E0,1.1033294E0,1.8629496E0],"tree_param":{"num_deleted":"0","num_feature":"5","num_nodes":"9","size_leaf_vector":"1"}},{"base_weights":[2.0062656E-3,-1.1799486E-1,5.271772E-2,3.1361404E-1,-2.5640094E-1,1.0346379E-1,-2.6402768E-1,-5.594181E-3,5.1113643E-2,4.245199E-3,-3.3488154E-2,-8.038777E-4,2.0449381E-2,-4.631187E-2,9.031401E-3],"categories":[],"categories_nodes":[],"categories_segments":[],"categories_sizes":[],"default_left":[0,0,0,0,0,0,0,0,0,0,0,0,0,0,0],"id":90,"left_children":[1,3,5,7,9,11,13,-1,-1,-1,-1,-1,-1,-1,-1],"loss_changes":[4.8685223E-1,1.5004041E0,9.308151E-1,1.9903889E0,2.6738105E0,1.802275E0,2.535746E0,0E0,0E0,0E0,0E0,0E0,0E0,0E0,0E0],"parents":[2147483647,0,0,1,1,2,2,3,3,4,4,5,5,6,6],"right_children":[2,4,6,8,10,12,14,-1,-1,-1,-1,-1,-1,-1,-1],"split_conditions":[1.81E1,-3.2E1,7.3E1,-4.3E1,1.57E1,5.2E1,8.4E1,-5.594181E-3,5.1113643E-2,4.245199E-3,-3.3488154E-2,-8.038777E-4,2.0449381E-2,-4.631187E-2,9.031401E-3],"split_indices":[3,0,2,0,3,2,2,0,0,0,0,0,0,0,0],"split_type":[0,0,0,0,0,0,0,0,0,0,0,0,0,0,0],"sum_hessian":[7.7980736E1,2.277063E1,5.5210102E1,5.221592E0,1.7549038E1,4.8166637E1,7.0434675E0,3.788809E0,1.432783E0,1.0047564E1,7.501473E0,3.5301647E1,1.2864987E1,2.394452E0,4.6490154E0],"tree_param":{"num_deleted":"0","num_feature":"5","num_nodes":"15","size_leaf_vector":"1"}},{"base_weights":[1.8450756E-3,1.9548744E-2,-3.3752707E-1,-2.7703745E-2,1.9472182E-1,-3.1124055E-2,1.4343002E-3,1.8302415E-3,-2.5523052E-2,-4.6009473E-3,2.5574034E-2],"categories":[],"categories_nodes":[],"categories_segments":[],"categories_sizes":[],"default_left":[0,0,0,0,0,0,0,0,0,0,0],"id":91,"left_children":[1,3,5,7,9,-1,-1,-1,-1,-1,-1],"loss_changes":[4.805559E-1,6.3381326E-1,4.3171185E-1,1.9021183E0,1.5233035E0,0E0,0E0,0E0,0E0,0E0,0E0],"parents":[2147483647,0,0,1,1,2,2,3,3,4,4],"right_children":[2,4,6,8,10,-1,-1,-1,-1,-1,-1],"split_conditions":[2.46E1,4.1E1,3.7E1,2.5E1,2.06E1,-3.1124055E-2,1.4343002E-3,1.8302415E-3,-2.5523052E-2,-4.6009473E-3,2.5574034E-2],"split_indices":[3,0,2,0,3,0,0,0,0,0,0],"split_type":[0,0,0,0,0,0,0,0,0,0,0],"sum_hessian":[7.788604E1,7.492016E1,2.9658833E0,5.966699E1,1.5253167E1,1.2744458E0,1.6914374E0,5.3468563E1,6.198424E0,8.378325E0,6.874842E0],"tree_param":{"num_deleted":"0","num_feature":"5","num_nodes":"11","size_leaf_vector":"1"}},{"base_weights":[1.3228015E-3,3.62526E-1,-1.52108995E-2,-1.2557408E-3,3.0096827E-2,-3.896863E-2,1.039131E-2,-3.2150734E-4,2.1418998E-2],"categories":[],"categories_nodes":[],"categories_segments":[],"categories_sizes":[],"default_left":[0,0,0,0,0,0,0,0,0],"id":92,"left_children":[1,3,5,-1,-1,-1,7,-1,-1],"loss_changes":[4.761729E-1,3.3899298E-1,1.5012541E0,0E0,0E0,0E0,5.289215E-1,0E0,0E0],"parents":[2147483647,0,0,1,1,2,2,6,6],"right_children":[2,4,6,-1,-1,-1,8,-1,-1],"split_conditions":[1.16E1,5E1,1.29E1,-1.2557408E-3,3.0096827E-2,-3.896863E-2,1.8E2,-3.2150734E-4,2.1418998E-2],"split_indices":[3,2,3,0,0,0,2,0,0],"split_type":[0,0,0,0,0,0,0,0,0],"sum_hessian":[7.7810524E1,2.489838E0,7.532069E1,1.2923808E0,1.1974572E0,1.4872872E0,7.38334E1,7.192354E1,1.9098611E0],"tree_param":{"num_deleted":"0","num_feature":"5","num_nodes":"9","size_leaf_vector":"1"}},{"base_weights":[1.388862E-3,1.229036E-1,-4.7931105E-2,-1.0232472E-1,2.6590213E-1,-2.9501665E-1,6.798552E-2,3.231326E-3,-3.7392795E-2,3.6956925E-2,2.501767E-3,1.0257675E-2,-2.467454E-2,4.220867E-2,-1.2061237E-3],"categories":[],"categories_nodes":[],"categories_segments":[],"categories_sizes":[],"default_left":[0,0,0,0,0,0,0,0,0,0,0,0,0,0,0],"id":93,"left_children":[1,3,5,7,9,11,13,-1,-1,-1,-1,-1,-1,-1,-1],"loss_changes":[4.7797686E-1,7.6868224E-1,1.6454413E0,1.0896833E0,1.429914E0,1.9187922E0,2.8400958E0,0E0,0E0,0E0,0E0,0E0,0E0,0E0,0E0],"parents":[2147483647,0,0,1,1,2,2,3,3,4,4,5,5,6,6],"right_children":[2,4,6,8,10,12,14,-1,-1,-1,-1,-1,-1,-1,-1],"split_conditions":[9E0,1.93E1,3.7E1,1.9E1,2.17E1,1.91E1,4.4E1,3.231326E-3,-3.7392795E-2,3.6956925E-2,2.501767E-3,1.0257675E-2,-2.467454E-2,4.220867E-2,-1.2061237E-3],"split_indices":[2,3,2,3,3,3,2,0,0,0,0,0,0,0,0],"split_type":[0,0,0,0,0,0,0,0,0,0,0,0,0,0,0],"sum_hessian":[7.777153E1,2.2021906E1,5.5749626E1,8.662524E0,1.3359382E1,1.7309011E1,3.8440617E1,7.597499E0,1.0650254E0,3.425576E0,9.933805E0,4.9076643E0,1.2401347E1,3.211604E0,3.522901E1],"tree_param":{"num_deleted":"0","num_feature":"5","num_nodes":"15","size_leaf_vector":"1"}},{"base_weights":[1.6854573E-3,1.719979E-1,-3.4149546E-2,-6.0775176E-2,5.160828E-1,-2.1143886E-1,6.462924E-2,7.253313E-3,-3.0314216E-2,4.4149257E-2,-2.008885E-2,-7.706543E-3,-3.0862158E-2,2.1038126E-2,-3.7717675E-3],"categories":[],"categories_nodes":[],"categories_segments":[],"categories_sizes":[],"default_left":[0,0,0,0,0,0,0,0,0,0,0,0,0,0,0],"id":94,"left_children":[1,3,5,7,9,11,13,-1,-1,-1,-1,-1,-1,-1,-1],"loss_changes":[4.86215E-1,1.1404147E0,1.1669805E0,1.1158458E0,2.271912E0,4.5830894E-1,2.1795878E0,0E0,0E0,0E0,0E0,0E0,0E0,0E0,0E0],"parents":[2147483647,0,0,1,1,2,2,3,3,4,4,5,5,6,6],"right_children":[2,4,6,8,10,12,14,-1,-1,-1,-1,-1,-1,-1,-1],"split_conditions":[-4.2E1,2.18E1,-3E0,1.99E1,2.38E1,1.12E2,1.5E1,7.253313E-3,-3.0314216E-2,4.4149257E-2,-2.008885E-2,-7.706543E-3,-3.0862158E-2,2.1038126E-2,-3.7717675E-3],"split_indices":[0,3,0,3,3,2,0,0,0,0,0,0,0,0,0],"split_type":[0,0,0,0,0,0,0,0,0,0,0,0,0,0,0],"sum_hessian":[7.770387E1,1.2846901E1,6.485698E1,8.154059E0,4.692841E0,2.2798119E1,4.2058857E1,6.4531217E0,1.7009377E0,3.3798046E0,1.3130367E0,2.1186026E1,1.6120919E0,1.1306495E1,3.0752363E1],"tree_param":{"num_deleted":"0","num_feature":"5","num_nodes":"15","size_leaf_vector":"1"}},{"base_weights":[1.320895E-3,-1.2384766E-2,2.1399783E-2,1.9418724E-2,-6.096183E-1,-2.3443483E-4,2.9127596E-2,-8.627658E-3,-3.5727907E-2],"categories":[],"categories_nodes":[],"categories_segments":[],"categories_sizes":[],"default_left":[0,0,0,0,0,0,0,0,0],"id":95,"left_children":[1,3,-1,5,7,-1,-1,-1,-1],"loss_changes":[4.6525908E-1,1.4777681E0,0E0,1.0106612E0,5.708635E-2,0E0,0E0,0E0,0E0],"parents":[2147483647,0,0,1,1,3,3,4,4],"right_children":[2,4,-1,6,8,-1,-1,-1,-1],"split_conditions":[7.9E1,7.4E1,2.1399783E-2,6.5E1,1.94E1,-2.3443483E-4,2.9127596E-2,-8.627658E-3,-3.5727907E-2],"split_indices":[0,0,0,0,3,0,0,0,0],"split_type":[0,0,0,0,0,0,0,0,0],"sum_hessian":[7.765415E1,7.617813E1,1.4760227E0,7.324521E1,2.9329205E0,7.118931E1,2.055901E0,1.0798296E0,1.8530908E0],"tree_param":{"num_deleted":"0","num_feature":"5",